skill,0,1,2,3,4,5,6,7,8,9,10,11,12,13,14,15,16,17,18,19,20,21,22,23,24,25,26,27,28,29,30,31,32,33,34,35,36,37,38,39,40,41,42,43,44,45,46,47,48,49,50,51,52,53,54,55,56,57,58,59,60,61,62,63,64,65,66,67,68,69,70,71,72,73,74,75,76,77,78,79,80,81,82,83,84,85,86,87,88,89,90,91,92,93,94,95,96,97,98,99,100,101,102,103,104,105,106,107,108,109,110,111,112,113,114,115,116,117,118,119,120,121,122,123,124,125,126,127,128,129,130,131,132,133,134,135,136,137,138,139,140,141,142,143,144,145,146,147,148,149,150,151,152,153,154,155,156,157,158,159,160,161,162,163,164,165,166,167,168,169,170,171,172,173,174,175,176,177,178,179,180,181,182,183,184,185,186,187,188,189,190,191,192,193,194,195,196,197,198,199,200,201,202,203,204,205,206,207,208,209,210,211,212,213,214,215,216,217,218,219,220,221,222,223,224,225,226,227,228,229,230,231,232,233,234,235,236,237,238,239,240,241,242,243,244,245,246,247,248,249,250,251,252,253,254,255,256,257,258,259,260,261,262,263,264,265,266,267,268,269,270,271,272,273,274,275,276,277,278,279,280,281,282,283,284,285,286,287,288,289,290,291,292,293,294,295,296,297,298,299,300,301,302,303,304,305,306,307,308,309,310,311,312,313,314,315,316,317,318,319,320,321,322,323,324,325,326,327,328,329,330,331,332,333,334,335,336,337,338,339,340,341,342,343,344,345,346,347,348,349,350,351,352,353,354,355,356,357,358,359,360,361,362,363,364,365,366,367,368,369,370,371,372,373,374,375,376,377,378,379,380,381,382,383,384,385,386,387,388,389,390,391,392,393,394,395,396,397,398,399,400,401,402,403,404,405,406,407,408,409,410,411,412,413,414,415,416,417,418,419,420,421,422,423,424,425,426,427,428,429,430,431,432,433,434,435,436,437,438,439,440,441,442,443,444,445,446,447,448,449,450,451,452,453,454,455,456,457,458,459,460,461,462,463,464,465,466,467,468,469,470,471,472,473,474,475,476,477,478,479,480,481,482,483,484,485,486,487,488,489,490,491,492,493,494,495,496,497,498,499,500,501,502,503,504,505,506,507,508,509,510,511,512,513,514,515,516,517,518,519,520,521,522,523,524,525,526,527,528,529,530,531,532,533,534,535,536,537,538,539,540,541,542,543,544,545,546,547,548,549,550,551,552,553,554,555,556,557,558,559,560,561,562,563,564,565,566,567,568,569,570,571,572,573,574,575,576,577,578,579,580,581,582,583,584,585,586,587,588,589,590,591,592,593,594,595,596,597,598,599,600,601,602,603,604,605,606,607,608,609,610,611,612,613,614,615,616,617,618,619,620,621,622,623,624,625,626,627,628,629,630,631,632,633,634,635,636,637,638,639,640,641,642,643,644,645,646,647,648,649,650,651,652,653,654,655,656,657,658,659,660,661,662,663,664,665,666,667,668,669,670,671,672,673,674,675,676,677,678,679,680,681,682,683,684,685,686,687,688,689,690,691,692,693,694,695,696,697,698,699,700,701,702,703,704,705,706,707,708,709,710,711,712,713,714,715,716,717,718,719,720,721,722,723,724,725,726,727,728,729,730,731,732,733,734,735,736,737,738,739,740,741,742,743,744,745,746,747,748,749,750,751,752,753,754,755,756,757,758,759,760,761,762,763,764,765,766,767
1.G.A.1,0.0049230047,-0.10675046,-0.0055181114,0.023331001,-0.01545981,0.022394095,0.041233465,-0.01461239,0.0018675267,-0.00451831,0.0078111985,0.005934839,0.026026087,0.0067018187,-0.002596761,-0.099765986,0.023593405,0.03003417,-0.023840448,0.030291924,0.018687334,0.024741236,0.043764625,0.024508977,-0.067462265,-0.00079345953,-0.029789722,-0.004500889,0.0007201953,0.0040037087,0.035448797,0.03482525,-0.04363246,-0.08834296,0.0072146934,-0.002005796,0.0018657491,-0.011527977,0.020786494,-0.017502716,-0.001604294,-0.044314325,0.03706666,-0.026166527,-0.026830537,-0.04630579,0.012841616,0.020480884,0.0022577816,-0.013946523,-0.0026858917,-0.038593665,0.01981092,0.0004375953,0.004560822,0.0061052134,-0.048533045,-0.028079104,-0.057082582,0.025649521,0.0029264514,-0.029233914,0.004282909,0.052595966,0.027811302,-0.010332574,0.035485007,-0.0074676094,0.0028682225,0.016171152,0.070347875,0.009696971,0.031233476,-0.040464517,0.017137747,0.06734171,0.0044902056,-0.037564214,0.008201595,-0.04763328,-0.021932878,-0.04318821,-0.038362484,0.001298337,-0.032838646,-0.032948494,0.0005075009,0.011407229,-0.009266522,0.014572429,0.0025586104,-0.076487616,-0.04137742,-0.0707674,0.0042179017,-0.018707177,0.019692082,0.05986401,-0.008511881,0.030903688,0.044508133,0.050352544,0.057899162,-0.0076386575,0.007176709,0.03974147,0.028668867,0.0738789,-0.08388745,0.0076402496,-0.06051928,-0.06162075,-0.0021844115,-0.05350695,0.059172586,0.0036123958,0.001781284,0.008860197,0.028391795,-0.029040951,0.030306108,-0.023064965,0.014827863,-0.0016630109,0.020426918,0.031489648,-0.07537019,0.05100577,0.0031416477,-0.054647736,0.01313448,-0.0228941,-0.01442028,-0.01810152,-0.0024903126,0.016524741,0.019117502,-0.012178203,-0.00051704556,-0.030413406,0.046879128,-0.048592273,0.025260268,-0.016058965,-0.011906651,0.0032052293,0.010581906,-0.031779088,0.005215542,-0.048599184,0.027943676,-0.011146232,-0.009411439,0.018172788,-0.0002096791,0.0017534188,0.00039597906,0.047357704,0.006962191,-0.018328395,-0.0022115398,-0.060177993,-0.05682174,-0.03499525,0.002793354,-0.040703114,-0.039123215,0.0015405556,-0.015449345,-0.054785725,-0.06168386,0.018310027,-0.036787417,0.026216533,0.03160518,0.00093416387,0.13956329,-0.005523746,0.0034915071,0.04883503,0.035443112,0.05558328,0.0055937916,0.050344143,0.0146730505,0.034863748,-0.037794214,-0.040442348,-0.020613236,-0.020032855,-0.0019050307,-0.0005513818,0.05335919,-0.009673913,0.03742655,0.035805732,0.00067964266,0.026468636,-0.0016063107,-0.006947459,-0.011105581,-0.0062535224,0.047992725,0.0020108027,-0.045668263,-0.028082697,-0.08300181,-0.011154131,0.01201385,-0.017678484,0.06929997,0.0069624214,0.01743685,-0.022932922,0.026801417,-0.016128762,0.016276132,-0.0062313247,0.030634236,-0.019194549,-0.024972271,-0.0047826283,0.037892245,0.011737054,0.019240925,-0.0433616,-0.0045855558,0.02340054,-0.06626567,0.0062549803,0.01195199,0.012514002,-0.0142718945,-0.0045139296,0.015243768,-0.02947453,-0.001538653,0.118649654,-0.02650397,-0.021354288,-0.004390113,-0.084233806,0.014509123,0.012685533,0.0046536825,-0.0012504223,0.07539457,0.014155512,-0.0033632556,-0.038639482,-0.024075583,0.007970732,0.004377344,-0.043594267,-0.00814453,-0.0076832394,-0.057390396,0.008778357,0.039104644,0.05202437,0.063346036,0.015407263,-0.007228969,-0.030364646,0.0042785048,-0.011001124,0.02844155,0.055076744,-0.01102482,0.0068221516,0.01175976,0.013234473,-0.05424834,-0.0019846861,0.037045177,0.008656422,-0.08756765,-0.022711625,-0.008172758,0.009876106,0.016856864,-0.00038152243,-0.0045081656,-0.01988358,-0.0059625767,0.015227648,-0.0025108512,-0.026246965,-0.0016352568,0.0010320229,-0.022268988,0.0013602586,-0.027341923,-0.011898342,0.011640708,-0.03361687,0.015525687,0.008187372,-0.0010257044,0.005434173,0.054322306,-0.028411495,0.019373713,-0.0036646803,-0.046276562,0.010852779,0.0040141526,-0.059309408,0.03417056,0.025500245,0.021744607,0.0071888547,-0.03343539,0.11335279,-0.0057261977,0.0153972,0.04598689,0.0027147885,0.032046873,0.08224627,-0.0008979774,0.006093547,0.0033953346,-0.013416014,0.008425655,0.040988006,0.04066537,-0.048622195,-0.055072896,0.03327709,-0.012032423,0.025187638,0.05841647,0.011165196,-0.0027433627,0.093381256,0.018109078,0.0676693,0.004219029,0.031629074,0.010517412,-0.022286363,-0.05547785,0.07672665,0.08512619,0.02464153,-0.034229465,0.0049287737,0.08069986,0.026074689,-0.010587175,-0.046072833,0.017786086,-0.022241978,0.015633686,0.017130854,0.03827022,0.038643204,-0.06708963,-0.04246822,-0.03208004,0.0008458188,-0.010928575,0.036266617,-0.049478814,0.010710732,0.027899263,-0.0001038571,-0.052498937,-0.03953053,0.034756485,-0.0030100702,0.053761378,-0.045336545,0.019339414,0.024419507,0.01881388,0.030561127,0.0005149841,-0.016259655,0.026538132,0.014784391,0.043528914,-0.00610211,-0.041163772,-0.052889977,0.004923494,0.013062541,0.037902467,-0.010244684,-0.035356425,-0.06216727,-0.060806256,0.006960446,0.046445232,0.04995901,-0.0716035,-0.0040296423,-0.009266946,0.023382092,0.0046811444,0.06774375,0.028715704,-0.09075956,0.025265895,-0.060051996,-0.09495371,0.02369359,-0.0030736078,-0.033664547,-0.04105632,0.019176448,-0.054779794,-0.0190866,-0.031140542,0.06479783,-0.049715806,-0.02442509,-0.0028050507,0.098778255,0.009413489,-0.06907927,-0.016091162,0.01915089,0.0058673443,-0.006489047,-0.038002856,-0.007874995,-0.0070483913,-0.011452322,-0.004776618,-0.043201827,-0.027710821,0.002922705,-0.047778673,-0.051256355,0.01304657,-0.021502977,0.031372134,-0.08390714,0.075597,-0.017967274,0.012671719,-0.008691613,0.006701577,0.00015129839,-0.012452745,-0.02237986,0.017342148,0.057047408,0.05325545,0.053207025,-0.06639521,-0.0054654595,-0.04153248,-0.025414947,-0.03592048,0.023647845,-0.017493343,-0.004391679,0.010748295,-0.03945477,0.013200633,0.009991176,-0.015296246,0.0057838717,-0.012354716,0.06344968,-0.010780911,-0.0019742653,0.013129966,0.025224322,0.03810454,0.08536637,0.014718326,0.076235786,-0.07822081,-0.011437987,-0.04517317,-0.038044762,-0.0016974772,-0.028063629,0.024981106,0.049226664,-0.045356117,-0.042702973,-0.016719583,0.008468127,-0.00019873385,-0.02704961,-0.0036789568,0.01832365,-0.0070824507,0.004391929,-0.0073739258,0.03318585,-0.013365738,0.05931788,-0.024694249,-0.046861555,0.0009836294,0.015404671,0.0076598255,0.015347231,0.009120799,0.023082653,-0.017819453,0.0086992495,0.027610539,0.047302376,0.004864146,0.0085829105,0.07345079,0.0002978428,-0.036533516,-0.003786303,-0.08422443,-0.049589556,-0.013863405,0.0040204143,-0.003048646,-0.01312293,-0.016076788,0.022369038,-0.021513242,0.041453216,0.020333672,0.02584404,-0.07077811,0.017567711,0.050565276,0.019334007,-0.11051996,-0.005875946,4.104051e-05,0.0048694243,-0.023226693,0.020143881,0.021929136,0.02136993,-0.08216911,0.0074943714,0.054747026,0.017973294,0.01500712,-0.015389404,0.020689033,-0.0069599575,-0.0055031977,-0.03484967,0.020143308,-0.053813454,-0.044530496,0.029225873,0.083362386,-0.032117106,-0.01701624,0.047136873,0.0062638647,-0.0037716625,0.019285303,-0.028608557,-0.010695784,0.020371692,-0.045022577,-0.02986966,-0.016487675,-0.059006773,0.01305033,-0.024759643,0.0013559136,0.005362956,0.019750021,0.055442482,-0.06726584,-0.035939153,-0.04376105,-0.03579404,0.0075432733,-0.097955376,-0.058575243,-0.031534027,0.04122703,-0.03737609,-0.018061686,0.00550522,0.0059872614,0.007320209,0.010559515,-0.020316523,-0.030940393,0.010401592,-0.026095547,-0.06313185,0.029317183,0.044517606,-0.029402688,-0.020969259,0.0025496315,0.021981917,0.026947105,-0.035215955,-0.0034108565,0.015556902,0.013492916,0.08315032,-0.10482607,0.0043834145,0.0063039716,0.056185354,0.016105995,0.008963468,-0.025444428,0.035006028,-0.016762922,0.0384697,0.018474856,0.029319964,-0.032201584,0.08766415,0.00017729834,-0.043148007,-0.0017170506,0.05467856,0.026845165,-0.033932313,-0.022799775,0.09102964,0.02230814,0.0597492,-0.011870297,-0.009229979,-0.000204994,-0.0037837033,-0.08662694,-0.012608458,-0.04464757,0.05815122,-0.007297044,-0.040034827,-0.047144983,-0.033536416,-0.040597927,-0.0067804684,-0.0045580217,0.0067668376,-0.061834045,0.053968526,0.012593906,0.017440826,0.017842505,-0.00057179556,-0.062951446,0.058112253,-0.0036886395,-0.017391035,-0.013671198,0.026745725,0.005395714,0.043056067,0.008513351,-0.017992562,0.015534811,-0.033634022,0.0022916575,-0.01613928,-0.01405359,0.005856459,0.0018285352,-0.055491082,-0.017725267,0.0015078938,0.002197555,0.020896249,0.004321313,-0.055659287,-0.058429655,0.0061074956,-0.009738691,-0.006213008,0.022245469,0.03472316,-0.0037228684,0.0039924067,0.053509194,-0.061297044,0.010773343,0.0025361658,0.010543919,0.0269,0.047961023,-0.038051553,0.08088811,-0.047114175,0.034157705,0.025733823,0.009498444,0.02943008,0.013842186,0.0019413857,0.036319476,-0.04293159,0.031174138,0.0015956601,0.05590602,0.101678245,0.010736662,-0.023983048,0.057332046,0.022010317,-0.04870566,0.016920453,-0.021523047,0.0027056746,0.022962505,-0.009668557,0.034329265,0.044112623,0.07947044,-0.027200863,0.003418863,0.00058293145,0.056659713,0.021061443,-0.029661749,0.04559566,-0.0015724861,0.026740998,0.038592454,0.03409187,0.020485736,0.0447692,-8.035316e-05,0.06262648,-0.018026285,0.013675264,0.018762738,0.012081804,0.0012546142,0.02056655,-0.028167032,-0.008230364,0.058579173,0.009085001,-0.036069844,0.036589995,-0.017643021,-0.029831834,0.050981116,-0.053153113,0.044117417,-0.0100403065,0.05432501,0.018913046,-0.06310181,-0.0448193,0.04211166,-0.031601448,0.06265752,0.039225485,0.02903988,0.011861311,-0.003293482,-0.004621711,-0.07470187,0.028490214,-0.00846597,0.022095876
1.G.A.2,-0.050693393,-0.060689393,-0.025230903,0.023312379,-0.008005681,-0.00023122194,0.06719985,-0.0034330129,-0.04832733,-0.001190991,0.007873652,-0.008807868,0.01693499,0.05575111,0.040764205,-0.050774403,-0.03628742,0.033827495,-0.117221475,0.023460018,0.002728988,0.025002657,0.025504133,0.021486647,-0.059526805,-0.008748161,-0.07736671,-0.008787451,-0.024371173,1.0348223e-05,0.033279236,0.0450494,-0.032540966,0.016695643,0.020056974,-0.0173848,-0.023979846,-9.138135e-05,0.03956475,-0.03641844,0.001124258,-0.072156616,-0.005745317,-0.019930998,-0.037870012,0.042527657,-0.03602085,-0.00638627,0.09087471,-0.0370028,-0.009773246,-0.05770694,0.026738627,-0.00083813665,0.023114815,-0.011743096,-0.028078618,-0.04083545,-0.039861817,-0.03501288,0.040940166,-0.035113264,-0.020071158,0.040626213,-0.021434302,-0.020810043,0.012699328,-0.02983909,-0.03653035,0.04729016,0.018590419,-0.031637613,0.03740666,0.012128154,-0.009806996,0.007457955,-0.040432267,0.004827315,0.010228027,-0.049290583,-0.0383704,-0.0545196,-0.054332975,0.03460816,-0.020575551,-0.07573585,0.017934967,0.014693723,0.008413189,-0.02584857,0.08624388,-0.017484857,-0.008255726,-0.035978142,-0.041073993,-0.025109028,-0.018639559,-0.04346023,0.0017274361,0.05007695,0.0416918,0.04386958,0.095354445,0.01770506,-0.021624522,-0.0122358985,-0.047746867,0.004118432,-0.015987137,-0.020270856,-0.02037983,-0.02543781,-0.03386382,0.010581549,-0.022980072,-0.014447371,-0.021699885,0.017367937,0.011198671,-0.03500503,0.047237974,0.030229412,0.014733626,-0.0051276525,0.05664164,0.018501835,-0.012222611,0.040947866,0.04779325,-0.027068345,0.04386979,0.004952707,-0.0133189615,0.048011106,0.03450003,-0.04716881,-0.015252727,-0.0042089894,0.06292607,0.0067502446,0.053849827,-0.029107148,0.025334878,-0.00998729,0.027682925,-0.02991096,0.020030454,0.009451335,0.026868466,-0.04231547,0.008462889,0.04178673,-0.03807021,0.0019660366,-0.01913818,0.007359546,-0.040554598,0.022414822,0.012766864,-0.013505842,-0.05924572,-0.019748222,0.05017597,-0.036476012,0.010757897,-0.066998795,-0.019498942,-0.03903596,-0.077633,-0.0029761947,0.0015689122,0.0024768892,-0.0058913296,0.0193555,-0.034229953,0.008505459,0.078395925,0.05433142,0.00793151,-0.02772609,0.031578284,-0.039245106,0.014332513,0.059710916,-0.009069695,-0.011208258,-0.020285122,0.01894573,-0.037449136,-0.04091511,0.040265188,-0.034473725,0.07604214,0.032273345,0.06720867,0.023169436,0.018591262,-0.027022384,-0.0098583335,-0.020784376,0.0315727,-0.009865902,0.052820154,-0.020964311,-0.050945748,-0.013490397,-0.096348256,-0.0027837253,0.005611112,0.042409748,0.06188963,0.010595964,0.049902204,-0.0036285114,0.03050401,0.031120164,0.010764961,0.00470971,0.0066663274,-0.036618132,-0.043017823,0.087415285,0.06850536,-0.0005386143,0.025407305,0.00388014,0.036692414,-0.012995333,0.008783949,0.022258872,0.05440349,0.043106005,0.043672897,0.004224428,-0.063163035,-0.02465553,0.010041764,0.01745177,-0.051656377,-0.047205888,-0.029962638,-0.07420975,0.031286165,0.006532411,0.10777968,0.045799233,0.06012916,0.019317033,-0.012538091,0.011934812,-0.018811934,-0.0076887645,-0.037705995,-0.011149538,-0.023225727,0.025633493,-0.025462387,-0.0077624633,0.055791024,0.007898205,0.0032237312,0.006776051,-0.010801394,-0.014205296,0.024739662,0.009595006,-0.024311896,0.044116378,-0.0010769517,-0.029691523,-0.022913061,0.02455162,-0.068094715,0.013240631,-0.018867563,0.0046873274,-0.03139231,0.044963717,0.016062248,-0.03556227,-0.027558753,-0.008448372,0.031229671,0.014060736,-0.007492283,-0.010431833,-0.046378165,-0.07303737,-0.075621925,-0.041087836,-0.05019418,0.037445355,0.022742536,-0.027597383,0.013941255,0.029504104,0.0563533,0.057764567,0.003862205,-0.036362898,0.009663358,0.009929718,-0.002854508,0.049569298,-0.02927955,-0.01756329,0.03182444,-0.045980673,0.03869505,0.0030701251,0.040361222,0.0049095373,-0.032654423,0.059346892,-0.005475139,-0.007389088,0.016554775,-0.01900924,0.046610106,0.037632763,0.038622484,0.0025789146,-0.026946606,-0.0046559647,-0.018817676,-0.0023042054,0.018489357,-0.011290872,-0.062948465,0.021197855,-0.019993713,-0.06268597,0.058731906,0.018699344,0.020949857,0.019348735,-0.009484199,0.0038188377,0.013181284,0.03617344,-0.008321663,-0.040352385,-0.06327619,0.099204004,0.088924356,0.04235996,0.06051273,0.032252096,0.030207446,0.005931246,0.0077446727,-0.016902363,-0.0006536826,-0.010107925,0.0076458906,0.036562964,0.01792979,0.08156056,-0.054609906,-0.042030424,-0.0048210076,-0.0045857322,0.040382497,0.015811104,-0.047152415,0.02948574,-0.0076053333,0.033181172,-0.011958479,-0.030624308,-0.019861367,0.030780206,0.04885434,-0.05891797,-0.0053526424,-0.015412262,-0.018701036,0.052408073,-0.039172698,0.03389589,-0.016857674,0.06330549,0.0511692,-0.0064034695,-0.085455626,-0.024311062,0.01022258,-0.010277143,-0.0064871167,-0.024569163,-0.019949835,-0.12542807,-0.08726667,0.019224575,0.0059930766,0.058395535,-0.02593104,0.052651685,0.035171203,-0.017161313,-0.019678788,0.0124707,0.04635437,-0.05705483,0.08372377,-0.04181717,-0.12803791,0.015995104,-0.020244684,-0.07157052,-0.034676276,-0.025503606,-0.031205464,0.019926647,-0.10109495,0.0844631,-0.013122015,0.025837956,0.006041563,0.00663471,-0.028926048,-0.03581043,0.0012723606,-0.0108717615,0.01918716,-0.04192081,0.039025337,-0.020280706,-0.0056078583,-0.028442768,0.033354662,-0.0043694205,0.020107256,0.015226629,-0.09218348,0.022775747,0.0029978384,0.022193957,0.11401829,-0.017381309,0.05880488,0.018637761,0.05614631,-0.013795865,0.039876666,0.001849749,0.018974612,-0.022531057,-0.012837894,0.046446092,0.010319471,0.019732742,-0.062439676,-0.003206231,-0.011539405,0.010864252,-0.011689602,0.00052793516,-0.0073154364,0.0036033536,0.00045001882,-0.033498615,-0.036389697,-0.00897559,0.039174985,0.04139263,-0.020064179,0.049672488,0.0468449,-0.03444678,0.018711261,0.008999108,0.02574562,0.008869282,0.032074455,-0.008718146,-0.024778983,-0.0137222335,0.052553035,-0.024975734,-0.04721074,-0.027085619,-0.008521036,0.06344318,-0.0057278373,-0.024813056,-0.0326025,-0.0007592978,0.037219137,-0.024097027,-0.020326471,-0.026105976,0.009979226,0.020831259,-0.0067287553,0.039914995,0.042973455,-0.030901173,-0.035463862,-0.05172235,0.010842182,-0.027843043,-0.0045845155,0.049801756,-0.0102011375,0.005947512,-0.010663613,-0.018209565,-0.016786966,0.0015426902,-0.0093687335,0.04251059,0.035854656,-0.034979124,-0.022916848,-0.0004936342,-0.01734937,0.034442697,0.028760012,0.046817817,-0.046552427,0.00051942654,-0.0033912,-0.0077279634,-0.015107409,0.048480157,0.0063935984,-0.026573755,-0.04064613,0.050453067,-0.0072361394,-0.032143,-0.014984235,0.018601492,-0.07313703,0.034589443,-0.019386401,0.040677875,0.042360578,-0.029085193,-0.04350208,0.0040617585,0.042811774,0.019191885,-0.019400809,0.019101694,0.017391974,0.01931266,-0.012079897,0.033919662,0.06618876,-0.000855777,-0.0064953747,-0.0038529546,0.052872647,-0.022209438,0.018227242,0.017555796,-0.0030533138,0.0023279446,0.0027844852,-0.07708023,-0.0043096174,0.0055854977,0.0004596688,-0.0117564155,-0.02272325,-0.024942473,0.017662017,-0.0015074392,-0.011641564,0.023916941,-0.021746969,0.010666743,-0.022099366,-0.01471642,-0.044565827,-0.019065216,0.00612526,0.03419744,-0.01626023,-0.016358262,0.035673097,-0.019964866,-0.09311605,-0.027454773,-0.009333875,0.029156676,0.0065453164,0.08341528,0.010326176,-0.0023712225,-0.008729884,-0.048091713,0.010574346,0.022279274,-0.006475512,0.016427094,0.00014120471,0.013459163,0.025557239,0.018276906,-0.011926918,-0.0119574405,-0.012927766,0.054950006,-0.052399274,-0.0031665787,0.030317685,-0.001159037,-0.07608636,-0.024343958,-0.03134246,0.058431953,0.024755007,0.057641186,-0.064277805,-0.015890568,-0.020372761,0.0023288042,-0.013564913,0.0030902035,0.03459138,-0.0002299329,-0.0416684,-0.030247245,0.017357282,0.04363763,0.0052601025,0.06954579,0.027691914,0.05990127,-0.001335198,-0.0066905464,-0.041770857,-0.0025649508,-0.024955727,0.030326106,-0.005450076,-0.019085776,0.01637989,-0.008382097,-0.022279585,0.036469903,-0.017033461,0.06609489,-0.072571315,-0.036446724,-0.023667945,0.040568527,0.070694394,0.013493711,-0.0048184507,-0.046463683,0.016514592,0.023451187,0.045330252,-0.017043062,-0.0073369034,0.041759986,-0.016278097,-0.005414822,-0.023955904,-0.016260268,-0.016446859,-0.015750643,-0.011481173,0.0026425358,0.044864863,-0.049411494,-0.02526462,0.0070694974,0.018914523,-0.06278756,0.0077890176,-0.010861973,-0.048516877,-0.026552238,-0.04632433,-0.020234972,0.0010000069,0.031825162,0.028503567,-0.005940981,0.1294223,-0.044392515,0.010263413,0.027556904,-0.000117403804,0.032607917,0.03728685,-0.049139064,0.027801143,-0.02895935,-0.046560936,-0.020677147,0.07788279,-0.028634388,0.060410533,0.016231826,0.031963997,0.01961065,0.035608046,-0.013198018,0.07946177,0.062290482,-0.047177646,-0.048306227,0.028683092,0.032428764,-0.015332021,0.037060894,0.00019804938,-0.022620844,0.0672731,0.0013186235,0.016187074,0.025646005,0.009198796,-0.06845587,0.019428274,0.023852566,0.02407804,0.017235545,0.0021917543,0.008645027,-0.041407898,0.036437605,0.03610031,0.029334715,0.026528202,-0.010675833,0.038966827,-0.0013977049,-0.039010134,0.026146736,0.033886384,0.011262184,0.039232466,0.03374674,-0.0367377,-0.043715637,0.013965924,-0.022279436,-0.008848696,0.07034667,-0.031547666,-0.015384951,0.030554906,-0.053882692,0.013979323,0.0015455728,-0.02533477,0.033670813,-0.001629047,-0.043221083,0.01053095,-0.015008338,-0.014180128,0.047988143,0.0024594516,-0.06594356,0.004731682,0.06431966,-0.058524475,-0.03914895,-0.036464468,0.00571244
1.G.A.3,-3.3468132e-06,-0.058710176,-0.03996798,0.024443412,-0.014895981,0.007425495,0.0024698926,0.008428738,-0.025187973,0.007606059,-0.021407837,-0.06958553,-0.009006888,0.033234097,-0.06747754,-0.09036586,-0.017639497,0.07466984,-0.02823965,0.01714513,-0.01101432,-0.018130424,-0.0047973036,-0.002126953,-0.0397824,-0.052875783,-0.028735895,0.015300586,0.017285585,0.033754535,0.04397944,-0.0008366169,0.020600993,0.0061341724,0.01457661,0.008285043,-0.017899038,0.0617821,0.031769123,0.00076412567,0.0382745,-0.052120272,0.031569302,0.0016784803,-0.05667577,0.049523972,-0.023871899,-0.02187008,0.080722,-0.03431803,-0.018729877,0.0354371,-0.016246658,0.029117083,0.048748147,-0.099663466,-0.044521976,0.008545413,-0.015609288,-0.030272517,0.013518281,0.016934121,0.028976984,0.061265454,-0.032379705,-0.029977174,0.13348223,-0.03359662,-0.03723534,-0.009112529,0.024169546,0.016326465,0.009478449,-0.03274589,-0.02531151,-0.02068997,-0.026835717,0.019772017,-0.0041269115,-0.027519194,-0.04317041,0.019275468,-0.013417513,0.022596063,-0.07527988,-0.01540204,-0.009448315,0.007961673,-0.0038936324,-0.010364857,0.016236769,0.013502142,0.028469766,-0.012532978,-0.037669856,0.007325825,-0.083064,0.10442775,-0.004899422,0.09754837,-0.03415167,0.0051572877,0.031882927,-0.0037200707,0.0523475,-0.043281905,0.0035630525,0.03794172,-0.060715515,-0.030381292,-0.04273445,-0.02351389,0.023735875,0.020351568,-0.042027425,-0.024059005,-0.01445845,0.017710663,-0.00865323,-0.0160962,0.054195702,-0.001251044,0.038907487,-0.036629044,0.023065679,0.07195738,-0.04311742,0.03345435,0.0033108264,0.016178783,0.009200382,-0.049055874,-0.01883636,0.03341163,-0.018559655,-0.0014067661,-0.021430563,-0.024593795,0.056712456,-0.027457738,0.021006608,-0.018003559,-0.031077297,-0.029891895,0.060388528,-0.050422337,0.010140601,0.023923853,0.011272303,-0.012679675,-0.00951265,0.03953097,-0.05818813,-0.02532604,-0.017473534,0.054388627,0.018392041,0.0032446517,0.023626994,-0.039064463,-0.035725642,-0.0067330007,0.019125143,-0.005384314,-0.030009283,-0.035778325,0.016714668,-0.017602662,-0.0872541,-0.03131998,0.053032007,0.034887698,0.020193355,-0.009828438,0.006685002,0.036381148,0.003955356,0.05532605,-0.036180533,0.024041172,0.03572587,0.018629221,0.018451352,0.01235994,0.041569777,0.0012861587,0.09581629,-0.015355225,-0.020402428,-0.0133429365,0.024972161,-0.016189473,0.089644566,0.0022714953,0.04147602,0.013805073,0.02718219,-0.030671826,0.04892474,0.01661358,0.029735237,-0.020106751,0.024972333,0.028521208,0.007382502,-0.07235703,-0.041145626,-0.009516211,0.0136269955,-0.04382119,0.062977,-0.0023170833,0.002289199,-0.056021992,0.06484681,0.06299733,-0.0050736736,-0.009049239,3.2860316e-05,-0.050057236,-0.029216314,-0.05943867,0.059520315,-0.015683867,0.06195884,0.025937717,-0.019469429,0.03081573,-0.010786514,0.06874335,0.02647803,0.02407897,0.04798208,-0.014368735,0.000973117,-0.0288174,0.0021670982,-0.051546987,-2.9524117e-05,-5.8516194e-05,-0.010732937,-0.051222663,-0.015942117,0.013929816,0.043088567,0.0074477764,0.022212502,0.018124241,-0.0075233835,0.008433089,-0.055033494,-0.007813813,-0.02886423,-0.013229072,0.005176836,0.009356044,-0.020527316,-0.019309003,0.05735185,0.0342714,-0.040320113,-0.04554875,-0.0007149352,-0.013823832,0.006831917,0.013879388,-0.002577376,0.076267004,-0.0124229025,0.006535243,0.02703026,0.02142063,-0.018169003,0.015287344,-0.05057969,0.02316329,-0.030086998,-0.002066629,-0.02005689,-0.013526359,0.010243775,-0.029645633,0.014864382,-0.0020813658,0.014107052,-0.0034720171,0.0068926793,0.0056508454,-0.018638529,-0.01618022,-0.019438313,0.0325098,0.0255331,-0.0017270735,0.0040084515,0.04070925,-0.005424531,-2.2168866e-05,0.00896733,0.087983385,0.010785629,-0.018765157,0.025596824,0.0017906225,-0.007063072,-0.016832393,0.043456245,-0.097550884,-0.0077755684,0.03442599,0.03583268,-0.010198894,-0.048384257,-0.014485087,0.0016095325,-0.020161165,-0.028545538,-0.032191478,0.049180817,0.019313818,0.009347097,-0.007851052,-0.004049144,0.030200068,-0.002841387,-0.011934252,-0.026285483,-0.025471272,0.07621962,0.028918868,-0.021425063,-0.07750135,0.018875103,-0.024004148,0.056470066,-0.027316485,-0.0098824045,0.0645116,-0.027698163,0.031603653,0.015151474,-0.017016863,0.0023760784,0.0032045408,0.10028463,0.045343947,0.033062313,-0.025278037,0.017718157,0.04298541,0.04686217,-0.034923352,0.013562864,-0.0148619665,0.017471809,0.056554846,-0.011581082,0.01571517,-0.04456152,-0.042936955,-0.024963323,-0.008822661,0.111643344,0.055312697,0.030930908,0.004310518,0.0072407825,-0.018309338,-0.0021971257,0.010428161,0.028474977,-0.031537786,-0.0014276182,-0.023257166,0.008393119,-0.041819904,0.023369106,0.04423768,-0.06084134,-0.005364573,-0.023298584,-0.06937555,0.09040078,-0.009573678,-0.049587492,-0.0016496388,0.045737013,-0.022087194,-0.0022259315,-0.0016284426,-0.009596372,-0.1505986,-0.094601125,-0.018610993,-0.006616875,0.04985612,-0.0663799,0.010201143,0.0010770898,0.008048281,0.018125257,-0.018444452,0.08059378,-0.04888079,0.019848803,-0.056733523,-0.080796614,0.019351013,-0.0016484055,-0.04683353,-0.061992034,-0.0041075028,-0.02315154,0.0033455642,-0.05007743,0.060180563,-0.0149427205,0.042786445,0.005398504,-0.012385637,-0.047880236,-0.021761527,0.0010902089,0.0071218535,-0.05810729,0.008427689,0.033637922,-0.04505606,0.009144057,0.016075902,0.03493658,-0.0019015627,-0.007986565,0.02904776,-0.08977833,0.07882415,-0.0014469691,-0.008865224,0.075234905,-0.007324477,0.008115038,0.028793016,0.05990489,0.0056715817,-0.03799359,0.032147355,0.025665915,-0.04178725,-0.09266996,-0.0009925326,-0.0050443397,0.03809412,-0.048237696,-0.019120287,0.025329927,0.00016880555,-0.062899105,0.05116032,-0.0010721848,0.011632675,-0.018296722,0.021555673,-0.012009802,-0.010099568,-0.0019848205,0.009887864,-0.023989923,-0.01220799,0.030366184,-0.028234458,0.038010776,0.0042300737,0.05268528,0.03617727,0.035509974,0.026347028,-0.023922343,-0.08491346,-0.0075365603,-0.029051734,-0.07890915,-0.066003785,-0.0013037112,0.021568112,-0.00099601,0.006140793,-0.02325978,-0.015068386,0.02116796,-0.022684457,0.010637751,-0.0063225254,-0.026956322,0.09095668,0.045402568,0.014820881,0.026270684,-0.0019514177,-0.034489676,-0.026970942,0.0007484553,-0.012345575,0.008748635,-0.053200964,-0.0052170074,0.012951946,-0.0012435092,-0.029118413,0.023827894,0.0027675983,0.013548354,0.05140116,0.006173665,-0.08064105,0.028805673,-0.053188648,-0.0722887,0.04707708,-0.00089396664,0.052213807,0.005092348,0.032259982,0.002447961,-0.0346942,0.03928845,-0.009972774,0.027786639,-0.023464989,-0.04048407,0.0643236,0.02374957,-0.03205322,-0.031654004,-0.004769017,-0.03897329,0.029816583,-0.053280517,0.06817282,0.041293614,-0.017867144,-0.057418574,-0.0011512284,-0.026620107,0.014430756,0.0358335,0.00039511072,0.009952583,0.014204584,0.020223739,0.036541324,0.082042694,0.0028700083,0.06574654,-0.04773827,0.029108532,-0.0042750766,0.022464184,-0.012363752,0.011612742,-0.019359339,-0.011888354,-0.08933882,0.00032356716,-0.008141943,0.041740175,0.017650506,-0.027129205,-0.00298524,0.01659614,0.01914645,-0.028070895,0.040490117,0.039706,0.02845538,-0.042718664,0.016884178,-0.06473289,0.031593535,0.018896217,0.100779824,-0.018583672,-0.017627724,0.014699756,0.013263339,-0.0013554303,-0.050024472,0.0034192964,0.0068711266,0.037040196,0.021757256,-0.027371548,0.070693284,-0.016000962,-0.028252661,-0.017346947,-0.021208333,-0.02050655,0.022326492,-0.012085185,0.02896283,0.027160507,-0.02418095,-0.0049941684,0.005856897,-0.03895558,0.06214975,-0.06165302,-0.0063161487,0.011834236,-0.0077934437,0.0030183136,-0.0037062874,-0.013833976,-0.019509614,0.008225707,0.04063201,0.02675672,0.014868804,-0.039126303,-0.046669062,-0.0069760536,-0.023913013,0.023003109,0.021190971,-0.047909822,-0.036978636,0.011783866,0.01226075,-0.026707131,-0.03935293,0.049872212,0.023286913,0.0014537198,-0.01782024,-0.14501485,-0.04093026,-0.0426841,0.027700633,-0.012419324,-0.010278893,0.009924047,0.015738744,-0.01943996,-0.011353082,-0.011285138,0.023204243,-0.07043817,0.08843537,-0.009729292,0.018212194,0.009780374,-0.07188296,0.044708475,-0.0007370815,0.012745819,-0.0053159324,0.0048266295,-0.0123263635,-0.027751744,0.011484522,-0.031891376,-0.039285637,-0.02042108,-0.014722734,0.022608044,-0.011441646,-0.017540699,-0.008488138,0.030350098,-0.020700252,-0.018749177,-0.0127891805,-0.0017334231,-0.03572884,-0.005815246,-0.07443823,-0.06316421,0.080785885,-0.02161191,0.0023679286,-0.0038751862,0.009186326,0.0015040761,-0.008700719,0.045532383,0.013754293,-0.0088120345,0.031517554,-0.008832741,0.02907223,0.045040153,0.027155515,0.017382113,-0.028777989,-0.057780057,0.025272911,0.027330574,-0.05716138,0.013318931,0.05534663,0.019518983,0.0011418842,0.040699523,0.029601058,0.069187805,0.04639956,-0.041674532,0.015117425,0.034408234,0.0009900593,-0.035045054,0.049188938,-0.0071678404,-0.012369123,0.08253008,-0.0071943193,0.015987698,0.028547918,0.034171674,-0.06611524,-0.05687874,0.027179461,0.032048088,0.0010548985,0.013962049,0.0070465687,-0.031482603,0.0065492317,0.03971992,0.039788794,0.004109983,0.01575777,0.023830252,0.0069209225,0.014156475,0.011438299,0.042425647,0.036489233,0.03426898,0.015854433,-0.018729528,0.0163026,0.06350432,0.0031727108,0.031572033,0.056297638,-0.019740738,-0.0029126091,0.0024652798,-0.06180295,0.008012926,0.0054689134,0.047043975,0.012785523,0.008659228,-0.016441008,0.016683152,0.0008477353,-0.029762903,-0.0072037117,0.063398525,-0.027350003,-0.0035593475,-0.0066182693,-0.037558984,-0.014362217,-0.013049955,0.013679796
1.MD.A.1,0.04390774,0.023690432,-0.038709093,0.05472866,0.034369122,-0.03304889,0.035499558,0.008368612,0.018660203,0.02923523,0.0044910447,0.03758374,0.005901368,-0.012517013,-0.025791498,-0.061864436,-0.004196694,0.007812298,-0.038709164,0.024577647,-0.029612223,-0.017222261,-0.030070521,-0.014678819,0.031165926,-0.021839665,-0.06264757,0.028089222,0.007218121,-0.0071806787,0.01992777,0.035446428,0.012231477,0.004813375,0.020668607,-0.0025583063,0.009327003,0.029588649,0.058815654,-0.06978394,-0.028447261,-0.0017553113,0.0122806365,-0.022772744,-0.050620195,0.023861526,0.035814047,-0.0515628,0.03969579,-0.011793992,-0.032488473,0.014595499,-0.008944738,0.0016437304,0.08600389,-0.049371094,-0.028640257,0.05377363,0.0060234796,0.07245765,0.026364246,-0.034487512,0.0169959,0.031812493,0.030694017,-0.020833218,0.052898172,0.038177077,-0.06584572,0.0076940665,0.022672726,0.016736576,0.031107051,-0.028150966,0.007337048,-0.03411073,0.014289575,-0.013664322,0.03681724,-0.024085972,-0.028567927,0.04727307,-0.021898137,0.034667727,-0.045350555,0.004427813,-0.030944057,0.03387357,-0.032613292,-0.03168874,0.1006049,-0.020103693,0.012650169,-0.04186293,-0.09002552,-0.020870551,0.01308824,-0.010157965,0.027090486,-0.0071867732,0.045332473,0.020819252,-0.0060520587,0.021540327,0.031454526,0.029378582,-0.002273224,-0.005946113,-0.09156634,0.055076238,-0.045500968,-0.009056949,0.002357957,0.011115155,-0.04054607,0.016249502,0.00087108294,0.0037583734,0.00912765,-0.067449026,-0.04619946,-0.03695004,0.0069700964,0.01855224,-0.03074106,0.002208942,-0.07884725,0.011059469,-0.012929049,0.0040335455,0.026600936,-0.005902962,0.0037180462,-0.03780732,-0.030070215,0.08717069,-0.020149665,-0.034351595,0.066194125,-0.011949908,0.02580701,-0.043300595,0.033995207,-0.043351877,0.050353117,-0.05441308,0.015892897,0.021318965,-0.009152243,-0.0019130509,-0.014200297,0.042389553,0.052702896,0.012804553,-0.02232352,0.041411087,0.029507877,-0.026673587,-0.020414853,-0.006094555,-0.059005864,-0.023787566,-0.0017085029,-0.02069946,-0.011475172,-0.027935049,-0.024311896,-0.027539108,-0.07542778,-0.0009818991,-0.02843537,-0.011761848,0.01941857,-0.043534473,-0.033108957,-0.03975568,0.041545153,0.040802106,0.033215325,-0.012806558,-0.050428938,0.063256964,0.048539255,0.07791498,0.029046522,0.009629684,-0.041752484,-0.009496515,0.0047318744,-0.027713003,0.039068967,-0.0024531563,0.01656909,-0.020698322,0.023763297,0.033999596,0.00023879252,-0.029054321,0.00644327,-0.015095268,-0.034141395,0.012758646,0.012107112,0.027682357,-0.004610535,-0.0490753,-0.039682288,0.028819077,0.017320456,-0.012111871,0.09434571,-0.009108329,0.0347634,0.030330688,0.011799476,0.070853606,-0.032124944,0.017623419,0.0121904295,-0.04739614,0.003039439,-0.004433673,0.048378143,-0.0079406155,-0.036806103,0.030098662,-0.03088977,0.03747266,-0.036716715,-0.013839984,0.027485473,-0.0073865196,0.06406812,-0.0080008,0.016330697,0.0107357185,-0.03363782,0.027788209,-0.009579265,-0.027557636,0.030005546,-0.027773267,-0.030877694,-0.0030084937,-0.023032578,0.018886184,0.018392501,0.05674625,0.021489793,0.00976167,-0.07580917,-0.008222641,-0.011837914,-0.019819444,0.047844294,0.038533904,-0.09250868,-0.02103655,0.028397484,-0.022219792,-0.014498625,0.01996521,-0.053698085,-0.015522813,0.0681351,0.0027749804,-0.05210026,0.014489784,-0.027998665,0.012935729,-0.0065875584,-0.0092982305,-0.00028302945,0.012766355,-0.008160217,-0.012563578,0.016620355,-0.024400175,-0.020585533,0.00077508925,0.019011714,-0.074918084,-0.0040985853,-0.034252685,-0.044409133,0.0010326082,0.024447316,-0.062378965,-0.04099379,-0.072631836,-0.06747569,0.042027768,-0.003322035,-0.006556984,-0.018976219,0.02065544,0.07142166,-0.039474897,0.023226988,0.032196727,0.06550041,-0.0034555811,-0.011765792,0.012344155,0.0050995997,0.017866105,0.057612304,-0.024590822,-0.041423466,0.011107485,0.0017466772,0.04022543,-0.002270661,0.070144065,0.008451027,-0.024815962,0.058892574,-0.0062851133,0.04762303,0.034471143,0.017618079,4.67102e-05,0.017172743,0.017193653,0.0076337983,0.019506376,0.03377128,-0.01230808,0.084787935,0.08189707,0.012733206,-0.09546037,0.020206757,-0.0036780047,0.0071737356,0.017290432,0.026510306,-0.008957163,-0.0071142036,0.048842624,0.021417443,-0.09630357,-0.009990039,0.01102672,0.07445812,0.008746374,-0.01407393,0.024243297,-0.039163448,0.0071822787,-0.0072489576,0.019694896,-0.0010547794,-0.0033192516,-0.009394752,0.030963363,0.021551935,0.0002967309,-0.026423426,0.0051323497,0.054390695,0.032279797,0.055587184,0.008395939,-0.03573248,0.030013949,-0.007609703,-0.058761034,0.04164462,-0.017319046,-0.030881502,-0.011109582,-0.007750756,-0.005296227,0.010195224,0.0018584193,0.038507283,0.036870755,-0.060329247,0.019254247,0.007916192,-0.015437153,0.060644846,0.005133266,-0.06309947,-0.039916668,0.034804624,-0.026083715,-0.09561852,-0.026823044,-0.019727934,-0.06831986,-0.07767824,0.018643776,0.014529749,0.05877574,-0.054144677,0.05404096,-0.017384008,-0.0077533135,-0.050983317,0.14096692,0.12135617,0.00078030035,0.039568022,-0.048251532,-0.07416203,0.01015276,0.006060363,-0.05319262,0.045691337,0.060927972,0.0067887045,0.0049807737,0.0006024559,0.03344638,-0.0033108348,-0.038587034,0.007194777,0.037598714,-0.0033671344,-0.048398595,-0.05161156,0.0306009,0.0152144525,-0.010027496,0.012663579,-0.008203333,0.012360078,-0.012153131,0.027730014,-0.025485137,-0.008579195,0.0004961487,-0.063078,0.039396644,-0.02617405,0.05488694,0.05264177,-0.055673577,0.018063392,-0.009194461,0.06728371,0.010688554,-0.022505255,-0.02050666,0.047549814,0.011921925,-0.07232131,0.06566099,0.027179021,0.012643258,0.03373631,0.07480842,0.04258293,-0.0018850736,-0.06524567,-0.021703923,-0.008211148,-0.004994239,0.05347659,-0.0150708975,-0.0063685398,0.0018567861,-0.0030840605,-0.12511533,-0.0004893142,0.0006860546,0.03191801,0.0017151909,-0.05659539,0.021836024,0.018073365,0.036474213,0.043341644,0.015421718,0.0092446515,-0.043479145,-0.038436826,-0.014358065,0.0063612065,-0.021264477,-0.018569514,0.012418844,-0.011228449,0.036958322,-0.06678786,0.013397333,-0.0022943642,-0.0059948866,-0.010042717,0.04875356,0.0053676325,0.01754775,-0.005580092,-0.04969778,0.04068677,0.022095658,-0.04710563,-0.07102091,-0.021339081,0.019187316,0.018693227,-0.007994499,0.035380047,0.03180035,-0.021986175,0.021992933,0.035813995,0.069154754,-0.01569405,0.05172683,0.029067865,-0.00794214,-0.005815728,-0.03652938,-0.0613241,-0.04251241,0.035861682,0.06302945,0.007636049,0.040888842,-0.010179405,-0.013810906,0.0067891306,-0.015406387,0.075394765,0.0020450405,0.008349728,0.064387545,0.060756847,-0.06469926,0.045593306,0.012377113,-0.005031711,-0.012436086,-0.023641434,0.00873803,0.069920726,-0.07889925,-0.014644429,-0.0036592141,-0.04687212,0.00079559616,0.06956168,-0.008470565,0.020690812,-0.012845054,0.018002937,0.025721245,0.0056274496,-0.0638039,0.058538873,-0.02173021,0.02302821,-0.015648475,-0.01771145,-0.03229804,0.0115007805,-0.020690292,0.0032244185,-0.024392933,-0.0030198835,0.01759364,-0.007289764,-0.007997194,-0.007425514,0.014124525,0.020055737,-0.013915893,-0.0037104606,0.035878066,-0.006694975,-0.012157679,-0.028745836,-0.024237301,-0.034927662,-0.005639311,-0.0017662871,-0.0018943846,-0.028789207,0.011943851,0.025084367,0.017261714,-0.059766028,-0.011506108,-0.022279767,-0.039298784,0.046733852,-0.08310229,-0.007060304,-0.02104413,-0.06932707,0.0076211733,-0.015099222,-0.029074669,0.011787792,0.05975622,0.04082975,0.011369945,0.07532899,-0.056854796,-0.0015594164,0.008522677,-0.024246452,0.048827898,-0.056287363,-0.036108945,-0.07949424,-0.03604953,0.07472377,-0.020767966,-0.0021702629,0.017952967,0.06562859,0.03383064,-0.002733778,0.029843949,-0.009369352,-0.013562224,0.0382535,-0.0014048055,0.01939469,-0.0038889416,0.054033734,-0.029821606,-0.018209789,0.05677679,-0.0014983547,-0.049205262,0.04335427,-0.014182086,-0.023215307,0.0032154256,-0.079187304,0.013167224,-0.045761574,0.0046240394,-0.026067661,0.014811113,0.02955573,-0.0009774638,-0.015292886,-0.028221035,-0.01150573,-0.014251072,-0.033809118,-0.027325166,0.00093877147,0.03380543,-0.10485529,0.027267363,-0.017497461,-0.015855322,-0.008359214,0.0038343363,0.04736498,0.032110658,0.029961644,0.033552032,-0.00074201735,-0.02864706,0.020427436,-0.01608642,-0.08189896,-0.07038721,0.010662159,-0.03133875,-0.012738101,0.016267156,0.023218298,0.016399642,-0.007419445,0.042271867,-0.0054231808,-0.046921633,-0.0459057,0.07904724,-0.007150985,0.025719315,0.0037939858,-0.039601125,-0.035081886,0.00096561713,0.009982639,-0.013045483,-0.020296682,0.040473193,0.011049301,0.013731054,-0.0055694217,0.007882681,0.082785465,-0.035329003,-0.0330792,-0.009357487,0.019414835,0.012908237,-0.030647889,0.08566374,0.056127112,-0.025035454,0.004063804,-0.020157652,0.10383127,-0.036227454,-0.010357929,-0.053659417,-0.012711352,-0.039420724,-0.028144753,0.047379684,-0.013476802,-0.050754633,-0.04683912,0.010766324,-0.004721249,0.023917992,0.032537673,-0.0048601744,-0.024656877,-0.008901176,0.01413887,0.009307878,0.013187118,-0.01308742,0.012204925,-0.018797863,0.004044807,0.055061534,0.047594495,0.008434149,0.06108343,0.02210692,-0.0275503,-0.008694625,0.06375007,0.024559092,0.008326076,-0.008326069,0.0112478,-0.048105434,0.08714296,-0.019803554,-0.008518129,0.014050548,0.008264436,-0.027125658,0.01089392,-0.023007257,0.010659275,-0.036041815,-0.033672493,-0.03448081,0.010197796,-0.051298227,0.03713609,-0.010468758,0.012191708,0.012177699,0.026126849,0.0017747285,-0.043804966,-0.043517694,-0.01824273,0.0037072957,0.0058189817,-0.023822114
1.MD.A.2,-0.016071897,-0.040402558,-0.03448891,0.008475527,0.019180555,-0.026459487,0.06987772,0.017001452,-0.03260017,0.023622582,0.04593497,-0.06457284,-0.016755978,-0.051296744,-0.036857497,-0.03570329,-0.017817678,0.03730843,-0.02438087,0.032355897,-0.026403315,-0.041823998,0.0015938657,-0.016872302,-0.05095698,-0.02613723,-0.038789563,-0.0015043034,0.0041404017,-0.015832152,0.008695221,-0.0023091661,-0.0030694925,-0.03139654,0.005394875,-0.0059713675,-0.0012281552,0.03469704,0.013527072,0.029075429,-0.021744937,-0.03979883,0.023100905,-0.0029590335,0.0006932815,0.08361573,0.031545617,-0.043879658,-0.00944852,0.024876177,-0.0049429475,0.034741536,0.01802352,0.016482253,0.06970533,-0.035463054,-0.029426612,0.048099294,0.025806457,0.09748108,-0.03866411,-0.0036619762,0.009852477,0.06709625,0.002465412,-0.014921399,0.091472216,0.02540543,-0.00799702,0.011997286,0.015834417,-0.0072688586,0.034254316,-0.009888197,-0.012861986,-0.08383225,-0.04489157,0.011356228,0.056601997,-0.023366708,-0.10337746,0.02978797,-0.014315256,-0.005003294,-0.07715681,-0.026854856,-0.008929895,0.046253126,-0.08441325,-0.03457501,0.009361974,-0.02985391,-0.008535274,-0.044131882,-0.026191372,0.0003710349,-0.03378349,-0.045437496,0.03300227,-0.034671806,0.021963911,0.0144588705,0.0642399,0.03039436,0.030953195,0.035393238,-0.041426133,-0.053986214,-0.07175259,0.009628451,-0.03998824,-8.257381e-05,0.019242475,-0.03560196,0.022978561,-0.021090942,-0.022075322,0.0074914703,0.03553374,-0.03942884,-0.123436674,-0.0155539885,0.00013976372,-0.040574912,-0.0019178309,0.05562636,-0.05999855,-0.0032125914,-0.015381625,-0.011930858,-0.022271728,0.012650731,-0.022208309,-0.032012183,-0.013798716,-0.00685164,0.009291905,-0.017209265,0.054355465,-0.041233648,-0.013780503,-0.019029673,0.057123546,-0.06598832,0.032629184,-0.03937724,0.013214866,0.017136037,0.014482951,-0.015303948,-0.015357949,0.059819672,-0.021944487,-0.0012524277,-0.06289001,0.010196949,0.083509564,-0.0001767363,0.019129647,0.02076246,-0.013858434,-0.046390936,0.009686867,-0.020612786,0.03259465,-0.046050582,-0.03571347,-0.0017831723,-0.059438284,0.020070858,-0.06352112,0.014739913,0.027952386,0.04459929,-0.022989627,0.0049001942,0.016981404,0.06339772,0.0316795,0.043592967,-0.010924025,0.005497229,0.0032997052,0.06283358,0.092217185,0.036379613,0.024399115,-0.01691016,-0.03235779,-0.012165378,-0.024213249,-0.029933164,-0.0127166025,-0.019215927,0.06262757,0.00021811845,0.08010586,0.03145515,-0.008464457,-0.009595218,0.009595303,0.010031285,0.009665215,-0.017936025,-0.012638806,-0.054851353,-0.040869925,-0.006939949,0.071096085,0.019483266,0.0918599,0.021325424,0.009513836,0.017766744,0.040083017,0.009283326,-0.006367708,-0.04266789,0.04850634,-0.01117666,0.01658286,-0.098607965,0.01942039,0.004404295,-0.03183307,-0.043455746,0.013688226,0.021889413,-0.006146428,0.04359085,-0.0012282303,0.0155754415,0.033142496,0.006998446,-0.04425415,-0.045840535,-0.039011754,0.031521384,0.037844688,-0.093034305,0.003110722,-0.055958804,-0.008495312,0.0015122598,-9.515925e-06,0.039600484,0.027648605,0.03467316,0.022606432,-0.016153187,-0.0089338375,0.005497858,-0.019740107,-0.0058640745,0.022420445,0.0035119462,-0.05291383,-0.0022910153,0.03941608,-0.04082564,0.015829433,-0.011660194,-0.02337086,-0.006411117,0.027803378,-0.022633241,-0.020151837,-0.068156466,-0.049248677,0.018164251,0.023875898,-0.0054598222,-0.02242082,0.014374973,-0.0058738785,-0.008527852,-0.06617287,-0.024070786,-0.016156672,-0.028330466,0.017517764,-0.008186313,0.011337741,-0.024715915,-0.03199389,-0.017669007,-0.015647981,0.004010705,-0.056973588,-0.021740146,-0.080219895,0.0027365019,0.017704383,-0.017407177,0.024783464,-0.011526254,0.05419128,-0.0051468154,0.015086179,0.030856455,0.09004915,-0.017068952,-0.018933374,-0.008362845,-0.012621787,0.04726033,0.036335684,-0.047426797,0.019786835,-0.02396216,-0.027130807,-0.009328345,-0.010153734,0.021445923,-0.007364058,-0.06554765,0.0637918,0.028565697,-0.0069084666,0.021980137,0.01736458,0.014527495,0.00912134,-0.0020461404,-0.008541487,0.04140246,0.02978704,-0.04043594,0.076670475,0.03537042,-0.018672291,-0.16761564,0.062048282,0.029507104,0.02957765,-0.031890593,0.018254112,0.02319316,-0.036263846,0.033508737,0.004699748,-0.04722021,-0.0015201786,0.047413517,0.07198256,-0.029894382,0.037958417,0.0017883,0.03519367,0.035146806,0.05572713,-0.008356944,-0.025413763,0.038719833,-0.009320628,0.005484721,-0.0027944783,-0.030140692,-0.005164145,-0.020276077,0.049668532,0.010172698,-0.020835496,0.046802096,-0.0601266,-0.021188563,-0.011287043,-0.03254913,-0.0031713268,0.019037258,0.07726849,-0.023883248,-0.028948605,0.0022320915,0.035164315,0.044580318,0.04694661,0.01028038,-0.018012086,0.004971132,-0.00075992284,-0.03455646,0.06350527,-0.011711563,-0.059672683,-0.019160084,-0.0048539424,-0.0267017,-0.023252228,-0.012749855,-0.012034282,-0.03693239,-0.037333272,0.07185334,0.066145904,0.054201122,0.0061670304,0.01633989,-0.0039862785,0.019926528,0.008329871,0.010140095,0.10004303,-0.035758335,-0.014806867,0.0120571405,-0.07646489,0.026121061,0.03281323,-0.027366575,0.06261941,0.13982119,-0.006635684,0.016291518,-0.011860467,0.050526682,-0.017610881,0.0015230107,-0.0014849263,-0.005243681,0.023911705,-0.030160652,0.01908331,-0.011696052,0.008472513,0.0017019579,-0.03555662,-0.038574398,0.0047214674,-0.010807845,0.0056701903,-0.07479151,-0.0043066605,-0.076568075,-0.052150473,0.049478464,-0.0008038777,-0.008685149,0.049234137,0.02594354,0.010790207,0.07728592,0.008938034,0.032256734,-0.024712557,0.018063776,0.057606123,-0.033646036,-0.027995886,0.018211158,0.040856156,0.014817435,0.06392001,0.039109584,0.018004207,0.047400903,-0.012205808,-0.00975216,0.015924802,0.003881646,0.048649512,0.043945935,0.009087009,0.019543402,-0.032191448,-0.05068717,-0.042040188,-0.0025295545,0.019430934,-0.039685767,0.06653708,0.014566804,0.0034019935,0.033259973,0.028733956,0.032405872,-0.011114179,-0.004640869,0.033816084,-0.031541064,0.04747155,-0.09259596,-0.0025458294,0.076527424,0.0051777977,0.0091990875,-0.06812808,0.034742504,-0.061614744,0.007886073,-0.023310637,0.0037683924,-0.015747584,0.05786932,-0.006528091,-0.0367444,0.06368057,-0.0018473576,-0.10884366,-0.035845574,0.003874604,0.039835006,0.024566583,0.0020355184,0.024249827,0.029132647,0.008311184,-0.007447847,0.04517706,0.069390036,-0.0039381953,0.0042348853,0.06376761,-0.03483129,0.0077679693,-0.027419193,-0.10210256,0.007243497,0.005334143,0.013693547,0.0064360923,-0.026689084,0.03089223,-0.04922486,0.026937032,-0.014638283,0.024123818,-0.014187685,-0.04451412,-0.032606326,0.014127965,-0.05067267,0.019074194,-0.01126913,-0.028264653,0.04096046,-0.02159898,-0.046108887,0.048594825,-0.037279874,-0.04188224,-0.032517046,-0.049151532,0.015210484,0.030525578,-0.0074670976,0.0001459206,-0.028563693,-0.004764555,0.012319351,0.05985385,-0.03795881,0.06235624,-0.05226771,0.018656762,0.001059073,0.016786005,-0.02124701,0.026657179,-0.05630826,-0.033377465,-0.025266299,0.0015426523,0.027067754,0.05466029,-0.010500438,-0.022086857,-0.004688693,-0.02640805,-0.019390633,0.0011432732,0.017441215,0.026530417,-0.006937568,-0.03486347,-0.020357372,-0.0426902,-0.00970586,-0.009016228,0.015521887,-0.004504091,0.0059918943,0.029214082,0.030551223,0.02813625,-0.009536111,0.0033930868,0.020138856,0.04893868,-0.024687096,-0.02799021,0.023691267,-0.050872996,-0.027252557,-0.041475616,-0.004267539,-0.04275148,0.036673255,0.0165946,0.031121729,0.022373484,-0.013923487,0.017628033,0.036661007,-0.0038905835,0.07506874,-0.03881021,-0.006512297,-0.027161652,-0.03474667,0.036504444,-0.06850734,0.012995741,0.040478405,0.0015652356,0.011221693,0.05835838,0.019376386,-0.0138393305,-0.049262248,0.0438382,0.016806975,-0.010357388,-0.034906574,0.04010395,-0.06917916,0.01589355,0.03681095,0.057877462,-0.005688737,0.05520376,0.011088551,-0.024973972,-0.017001841,-0.011587812,0.028615378,-0.022446346,0.021488298,0.002972318,-0.025119245,0.038337823,-0.025958326,-0.0034810484,-0.015191623,-0.011530085,-0.014179341,-0.020272218,-0.01614546,0.027142605,0.0031524508,-0.012269503,-0.06150994,-0.019387282,-0.008016046,0.024679085,0.015280481,0.04544337,0.024018114,0.029462757,0.02474576,0.009171277,-0.008880163,0.03441133,-0.016125707,-0.041301616,-0.013415222,-0.01166856,-0.026647475,0.027624967,0.006428757,-0.0024582476,0.014458476,0.004906194,0.07428606,-0.02820203,-0.07944903,-0.027125027,0.053331114,0.0078321975,0.00012067513,-0.018195817,-0.01980124,-0.015166576,0.0064327647,0.087357484,-0.056220006,-0.008144964,0.053413644,-0.00661853,-0.033523366,-0.03599389,0.025996992,0.014983121,-0.027135897,-0.010104116,0.0033684787,0.031229513,-0.017057857,-0.028931813,0.04680079,0.027876057,-0.02914352,0.009480187,-0.013213451,0.069607854,0.05588992,0.0064753634,-0.024987513,0.011026939,0.015635103,-0.03764819,0.06064224,0.0036711046,0.012782628,-0.012326256,0.01706422,0.03511826,0.055145476,0.04407349,0.04385816,-0.044198643,-0.005552791,-0.0018571665,0.0038640462,0.030373858,0.013859548,0.048758343,-0.004344106,0.023922088,0.029862756,-0.011800068,0.011115314,-0.0052671577,0.005859814,-0.04552979,-0.055240978,-0.054410584,0.042956233,0.006411563,0.0017018726,0.011966979,0.03662957,0.04424959,-0.00048071338,0.0032108303,0.027899344,-0.008067965,0.011187329,-0.05448927,-0.023011858,0.0411474,-0.016755057,0.0069955853,-0.03590542,-0.10461327,-0.051817898,0.06556961,0.0022146534,0.009775355,0.0057543097,0.06883157,-0.0331497,-0.0011298689,-0.06859154,0.022059621,-0.011948176,0.020539785,-0.03885317
1.MD.B.3,-0.038640805,-0.02008407,-0.007126588,-0.033395912,-0.02948064,0.02622312,0.056938138,0.005502421,-0.0036818646,-0.02362276,0.0028382058,-0.06592397,-0.012573356,-0.005316707,-0.03818509,-0.022332946,-0.035572752,0.038692936,-0.014243113,0.033157274,-0.060042508,0.0064055705,-0.016524708,-0.050362483,0.0041872812,-0.026772322,-0.030337391,-0.037440456,0.041445713,-0.005792047,-0.035677608,-0.010480076,-0.010296953,0.057904113,0.0010921683,-0.029584438,-0.003031256,-0.015499045,-0.07260086,0.085768156,0.05670325,-0.012265139,0.036756203,-0.034764286,-0.031175094,-0.008378115,0.0350799,-0.08491565,0.035973776,0.07587261,-0.01316286,0.04909503,-0.035871025,-0.0014529981,-0.041818775,0.0056354944,0.00832169,-0.012776914,-0.00069295533,0.08205499,0.027095616,-0.0019029913,0.0069073974,0.01923557,-0.0059708995,-0.043165483,0.01567374,-0.014124755,-0.06846904,0.035986546,0.030311553,-0.0629109,0.019626105,-0.026671546,-0.03260852,-0.054311518,-0.04131977,0.013823774,-0.0039645047,-0.006186321,-0.014409639,0.029922793,-0.0037459591,0.003001412,-0.04575085,0.06458394,0.018981472,-0.014371616,-0.10277709,0.006154313,0.04761241,-0.011538105,0.007415833,0.023690237,-0.02245197,0.015079917,-0.039459266,-0.0033120085,-0.026753766,0.015789125,-0.02449816,0.036503643,0.0030387016,-0.009139399,0.030964447,0.04551474,0.0019093617,-0.030885058,-0.0329264,-0.023723053,0.028444005,0.0025908067,0.039780766,-0.07973514,-0.014081391,-0.02469165,-0.018684702,-0.015660217,0.046464894,-0.01101074,0.09391781,-0.015693052,0.04275433,-0.057957586,-0.021147342,0.0040085632,-0.020664115,0.01835027,0.014053574,0.0030053942,-0.00027130128,-0.051806267,0.012429565,0.015596113,-0.014258276,-0.005073629,0.00544654,0.02543101,0.008298546,0.0038622094,-0.0076397993,0.0012315025,0.047811203,-0.06588624,0.026945248,-0.0030593865,-0.014668095,0.049329273,-0.0018856828,-0.00999259,0.06966999,0.04606095,-0.06330133,0.03964339,-0.019406704,-0.056764677,0.07163051,-0.013174648,0.0569402,-0.027172538,0.027896458,0.002422037,-0.004457925,0.019921584,0.032253634,-0.0026170288,-0.012022434,-0.006727173,0.038297202,-0.0015578798,-0.05656441,0.038503386,0.029534,0.021192068,-0.014584088,-0.061473675,0.05154553,0.014164497,0.07551352,0.0035694088,0.037881657,-0.060059413,-0.015847525,0.08287369,0.03761157,-0.015056139,0.029323263,0.007948077,-0.0017819041,-0.018955827,0.011314831,0.00044056188,0.041456144,0.059987023,0.026276724,0.017885482,0.033915564,0.025486859,0.0070781796,0.038936533,0.024961933,-0.0008520918,-0.05681809,0.07227821,0.00963476,-0.037694167,0.022708584,-0.014073287,0.12632576,0.059999235,0.10510185,0.04380808,0.0173655,-0.0021058046,0.014127691,0.02910585,-0.00048243644,-0.023525849,0.017847853,0.07104995,-0.018873414,-0.007597778,0.04513584,-0.004225047,-0.025327496,-0.076236784,0.010488573,-3.997965e-05,-0.04366375,0.044843856,0.051278155,0.046558112,-0.025896246,0.015105265,-0.02181371,0.01323488,-0.093436874,0.039507616,-0.012761325,0.008067787,0.04462527,-0.025582485,0.05830187,-0.010069649,0.031597342,-0.0026255092,0.10158935,0.012027534,0.007160199,0.02178266,-0.04155358,-0.018921366,0.0104564,-0.012283641,-6.182733e-05,-0.025556993,0.000610719,-0.017565427,0.034060854,-0.013328836,0.025621463,-0.015526521,-0.009906424,-0.006464857,-0.055863008,-0.02409296,-0.048226047,-0.046592366,-0.02884598,0.013936365,0.028457858,0.028577091,-0.027054237,0.007820445,0.004120858,0.016591318,-0.07529304,0.026695114,-0.03229374,-0.032165267,0.013194242,-0.014849986,-0.0014095678,-0.023294343,-0.044685174,0.0075847884,-0.046541315,-0.010311653,-0.048960052,-0.008051752,0.005784527,0.016863229,0.0257763,0.0062127495,0.026921615,0.02946773,0.039700054,0.002553822,0.007172353,0.06606524,0.004995791,-0.06421884,-0.028977484,0.0111425035,-0.02000201,0.07078658,0.07842314,-0.053031504,-0.07065094,0.060876235,0.025790296,-0.0005654432,0.0146713015,0.061168376,-0.01792667,-0.027872795,0.064169176,0.047986973,0.03247621,-0.0074517215,-0.012832826,-0.038269375,0.033460088,-0.014657165,0.0012449563,0.024475018,-0.020951038,-0.049980827,-0.060237903,-0.0056324643,-0.05440647,0.010910938,-0.028549742,-0.011747915,0.021352783,0.025039397,-0.02437892,0.005947819,0.0023618059,-0.015982142,-0.0172423,-0.03227496,0.014646075,-0.0013619189,-0.03563541,0.03100812,-0.026654642,-0.031573784,-0.05400353,-0.017855633,-0.011107107,-0.047181547,-0.0031725934,-0.0048538176,0.009065059,-0.031393323,0.025924008,-0.017959295,-0.07319406,0.021105515,0.02683549,-0.030567411,-0.025844933,0.05372453,-0.039761007,0.032784518,-0.037237998,0.0392449,-0.02753391,0.012925328,-0.044464685,0.07405,0.007840169,0.017384915,-0.0021207365,-0.01892193,-0.0011587673,-0.028464714,-0.09498305,-0.009453943,-0.007650113,-0.054734107,0.02029457,-0.03782848,-0.010824396,-0.029883858,0.0050540576,-0.0053140065,0.015675366,-0.08642789,0.0109812105,-0.04937608,0.035710875,-0.028878482,-0.016356366,0.010031949,-0.007676574,-0.022740936,-0.017852848,0.008574335,0.008702719,-0.07172041,0.06785404,0.024075119,0.0524742,0.04432559,-0.055879958,0.035577353,0.010986042,-0.017480265,-0.07188161,0.039488457,-0.029096453,0.009128994,-0.10153846,0.073995814,-0.034004875,0.009871781,0.04852386,0.0011357459,0.011049903,-0.019238265,0.014317855,0.012383698,0.020957075,0.015116147,0.019953888,0.052839786,0.011081989,-0.039076857,0.051505595,-0.0455426,0.020667031,0.035478737,-0.06943664,0.045838933,-0.06844344,0.061832193,-0.016225636,0.015227608,0.010906117,-0.047796458,0.026075516,0.07022581,-0.016259486,0.14242974,0.0669762,-0.05057819,-0.04421763,-0.0052931323,0.03387672,-0.03234174,-0.06963982,-0.030316403,-0.01588019,0.037389707,-0.014057031,-0.14282422,-0.00859031,0.023054693,0.04649394,0.02786837,0.017948588,0.05558699,0.033278767,-0.031972803,-0.011388656,0.041272614,-0.005723133,-0.02160099,0.047218096,0.014929271,0.03566959,-0.022474695,-0.0073854565,0.010163361,0.0007273942,-0.08026999,0.03523108,-0.04344033,0.0025663376,-0.04080764,-0.008365431,0.023680568,-0.014197022,-0.017880395,-0.09947653,0.0060536377,-0.0067131994,0.03227779,-0.012470195,-0.01676019,-0.037101965,0.026228929,0.020606158,-0.08961572,0.017727843,-0.02095546,-0.042872407,0.09218511,-0.034980584,0.028843606,0.0373724,0.011252403,-0.0067204786,0.0065945387,0.031102696,0.015447726,0.0020110097,0.026651343,-0.007484409,0.0051880213,0.009211798,-0.0204564,-0.02589095,-0.03738956,-0.0040491363,0.037796155,0.0005448291,0.045443792,-0.036796845,-0.020893998,0.028470472,0.01747005,0.052426517,-0.051830873,-0.010654997,-0.00905852,-0.03947252,0.003522742,-0.011196368,-0.00986367,0.081873,-0.021468118,-0.016854193,0.052622758,-0.036672574,-0.064102784,0.02345962,0.022067826,0.013181069,0.03547999,0.0712816,0.0010621807,-0.014426956,-0.043679714,0.026370624,0.016638579,0.01738159,0.017986173,0.05607395,0.03044932,0.050921194,-0.030809175,-0.040376384,-0.011068497,-0.030088507,-0.020024559,0.04400657,-0.0010072994,-0.031528626,0.018428104,0.0066499254,0.0053098747,-0.047227994,0.011856927,-0.00038216673,-0.016064165,0.020371702,-0.010601131,-0.039307863,-0.0075493506,-0.03065057,0.008182857,-0.033607233,0.0036554902,0.043464817,-0.008805809,0.039633006,0.10079522,0.009897965,0.048641928,0.03303394,0.019305004,-0.047882464,-0.02774194,-0.0045757764,0.03337279,0.05311893,0.02500994,-0.0036083295,0.06473388,-0.064881496,-0.045863792,-0.016886186,-0.0048751635,0.06333033,-0.015747461,-0.022644633,0.018103007,-0.016152147,0.04769735,-0.019156225,0.018556656,-0.050360687,0.024666592,-0.019854216,0.01675515,-0.025252761,-0.035788532,-0.049002606,0.030305358,-0.017373383,-0.020723121,-0.11413081,0.0009043487,0.04973558,-0.0176797,-0.019583398,-0.036582746,0.016871424,0.011718817,0.03398286,0.0034689496,-0.056582976,-0.0059909984,0.0046392684,-0.020865653,0.027378282,-0.051741675,0.016691716,-0.025162138,0.012219068,0.018643841,0.0350931,-0.030095022,0.016646003,0.013080225,-0.004025433,0.013995377,0.047291256,0.02049688,-0.015525206,0.0060503064,-0.02611886,-0.022601794,0.008756815,-0.032043055,-0.007035168,0.016499195,0.05542893,-0.024541974,0.0071627004,0.0018028158,-0.0015127406,-0.018735144,0.014201275,-0.001593079,0.011526568,0.03147984,0.018431343,0.006718138,-0.051277723,-0.008209811,0.013320755,-0.008566344,-0.029516641,-0.016652511,0.012956428,-0.062169578,0.04697948,-0.016917534,0.015620821,0.02751377,-0.08176751,-0.10395704,0.0044069854,0.064736605,0.09238233,0.04734459,0.021130437,0.015958633,-0.011019694,-0.015471903,-0.009552635,0.0051488183,-0.025392443,0.044400882,0.013417049,0.011846142,-0.00012842669,0.013257257,0.0738873,0.02049843,-0.061742347,-0.0026962257,0.0011962409,0.010728276,0.023216011,0.011769782,-0.025496807,0.01709109,-0.004984697,0.0030772036,-0.0037129107,-0.030613089,-0.000980596,0.0098086465,0.021069827,-0.0040583573,-0.026638985,0.0303128,0.032096915,0.0240463,-0.00782279,0.025377704,0.025002891,0.0458695,-0.011597579,-0.035124708,0.014038847,-0.014724131,0.015286343,-0.04364795,-0.001303751,0.03422709,0.025098627,-0.010990725,0.075673185,-0.0034786847,0.006741652,-0.010939856,-0.005038462,0.034736894,0.006228801,-0.0016891074,-0.0052528083,0.01573933,0.03490249,-0.024865823,0.0035500103,0.036916725,-0.039351813,0.021690648,-0.013808329,0.0054884697,-0.009979526,-0.016390719,0.025563365,-0.04478118,0.023143174,-0.029669989,0.048820417,0.036308806,-0.02802423,0.006585161,0.01531756,0.03126501,0.030372564,0.0006917082,0.041115116,-0.0645032,0.0015629486,-0.053071324,0.00055460574,-0.02598162,-0.036777455,0.0058835037
1.MD.C.4,-0.032148164,0.07442425,-0.0024071718,-0.015565822,0.042974364,0.010690381,0.05870733,0.028352257,-0.0023381836,-0.0008297367,0.0066521964,0.036736537,0.0003564617,0.05439577,-0.063618205,-0.09033836,0.03648884,0.002915081,0.018744566,0.016698275,0.019897154,-0.034666803,-0.034341935,-0.015247936,-0.012191122,-0.0022807636,-0.04308819,0.024983356,-0.011136327,-0.0031613996,0.0090589635,0.04502188,0.047080114,-0.010318086,0.025581228,-0.0119451545,-0.04360027,0.015264836,0.0423153,-0.03029939,-0.0034125985,-0.0775789,0.0050474443,0.018575786,-0.04050691,-0.060051773,-0.0064775343,-0.0029609865,0.13427135,0.024109388,-0.05400964,0.025756206,-0.03726552,0.023841314,0.029340517,0.0075876797,-0.044246554,0.05494535,-0.041006126,-0.0060082884,-0.0045305043,0.007532707,0.012320986,0.008701473,-0.024970435,-0.007656642,0.01177115,0.006551951,-0.054858916,0.0038072057,0.052109763,0.053406548,0.022308007,-0.066686824,0.029083205,0.013128675,-0.023916842,0.022840865,0.009380073,-0.078332126,-0.019429846,0.081283964,-0.016186746,-0.037628394,-0.074820764,0.008553679,0.0004140544,0.018281264,-0.015757935,-0.014048907,0.014627786,0.0033306486,-0.027054338,-0.034090463,-0.09645046,-0.023168815,-0.060901057,0.037005633,0.03498837,0.02691121,0.053709622,0.02636366,0.028984696,-0.004374896,0.13201419,-0.041528646,-0.030289277,-0.021594875,-0.04064828,-0.01928734,-0.041199643,-0.019679323,0.007626868,0.008115607,-0.008206371,0.009085474,0.022791758,0.024727458,-0.018112639,-0.05701841,-0.043374132,-0.024229001,0.009837345,0.0039682104,-0.031970125,-0.0142865125,-0.08105092,0.030584399,0.00284768,0.0010600559,-0.004572808,0.0003364033,0.0009672615,-0.03583768,-0.036175106,-0.01281932,-0.013863927,0.012813619,-0.01773908,-0.06311519,0.0024635387,-0.058857426,0.0008249277,-0.041936725,0.05562233,-0.028105618,-0.026612543,0.03268225,-0.008074212,-0.013531428,0.006352024,0.027847705,0.015335513,0.030131463,0.017737575,0.011701756,-0.01946702,0.020819772,-0.06415206,0.007891146,-0.03333004,-0.04006406,0.08660667,0.016162721,-0.016572032,-0.0069004605,-0.062355705,-0.008597754,-0.05103754,-0.014746072,-0.042334322,-0.023495786,-0.016187869,0.015308682,-0.00072003534,0.016583452,0.107469335,0.045533318,-0.0058494993,-0.010506509,0.04061277,-0.029878603,0.044792015,0.04221246,0.009405087,0.0127413785,-0.03431659,-0.052417245,-0.010797763,-0.020725112,0.07143344,1.1252214e-05,0.0045436546,0.03354748,0.009416954,0.020165252,0.054621406,0.002819258,0.02346898,-0.010124566,-0.045582414,-0.05985514,0.024197368,0.007753323,-0.0098776175,-0.06450673,-0.030667558,-0.04329456,0.041671272,0.011210252,0.07789662,0.0021085949,-0.027981846,0.0035264308,0.051856957,0.051557235,0.042411856,-7.6204145e-05,-0.057378188,-0.010964138,-0.035671223,0.0866281,0.037667632,-0.037814107,0.049039282,0.04403377,-0.022868091,-0.00715927,0.028336423,0.013944253,0.030861754,0.005027326,0.03632908,-0.036699098,-0.061083343,-0.035016548,-0.028068604,-0.0003769427,0.009401563,0.010679181,0.005282198,-0.081756696,-0.013241591,0.0101137515,0.0071954112,0.024509389,0.021670226,0.047288194,-0.018542921,0.007427589,-0.02596986,-0.024281275,0.03505618,-0.037808735,0.04084139,0.034181032,-0.123077765,0.003412647,-0.026807543,0.009643469,-0.022916066,-0.024060229,0.013075894,-0.023113133,-0.051004615,-0.02353151,0.011723015,-0.00052750914,0.014360874,0.044214737,-0.010547315,-0.0067912103,0.02328587,-0.009206129,-0.020082861,-0.0022504213,-0.07205454,0.010192697,-0.01232632,0.028274179,-0.0044106445,-0.019885885,-0.021533785,-0.020930026,-0.013995331,0.051096953,-0.010510754,-0.06624256,0.051636342,-0.06429371,-0.028040392,0.01617115,0.0074184607,-0.025558066,-0.021625094,-0.0141229,0.00026340038,-0.017679498,-0.01087221,0.10066094,0.034413323,-0.02236232,-0.025950518,0.008708791,-0.025752045,0.006768767,0.07721296,-0.05979188,0.0093956925,0.04277045,0.04417711,0.013881143,-0.047351357,0.06732252,-0.041915454,-0.050935812,-0.0032872716,-0.0106144035,0.0032762738,0.05492106,0.0148363,-0.017034685,0.01107619,0.058216006,0.0037975768,-0.047777932,-0.036071483,-0.014322652,-0.011262236,0.037480246,-0.03167597,-0.063098714,0.027528347,-0.010536064,-0.041348584,-0.0147403255,-0.0065114074,0.07614919,-0.03353352,0.019721108,-0.010258455,-0.020475836,0.014092416,-0.0086013805,0.1118958,0.05053946,-0.015924795,0.030424085,-0.03263659,-0.061252296,0.021538604,-0.0180748,0.0030419915,-0.026405463,0.023323065,-0.004798452,-0.030370442,0.05499306,-0.094093986,-0.03769026,-0.007029166,0.041576423,-0.017360803,0.02241976,-0.055136338,0.02513401,0.05944659,-4.0818344e-05,0.010702192,-0.013909699,-0.0035001845,-0.028741447,0.07249569,0.006463556,0.07427164,-0.025878701,-0.014091067,0.012852078,-0.082431994,-0.006514291,0.067167886,-0.019728858,0.07582825,-0.016075334,-0.055314384,-0.03176519,-0.022586046,-0.02364201,-0.009005364,0.030877408,-0.0054530445,-0.055880148,-0.06399165,-0.0095003415,0.012179685,0.021647537,-0.03475189,0.04616859,0.045535143,0.0040977607,-0.026690206,-0.006811414,-0.0044048033,-0.027462242,0.0466787,0.017674744,-0.0053505935,0.03760354,-0.045707103,-0.020781042,0.0044088284,-0.028456502,-0.010676241,-0.06337758,0.023429858,0.06821555,-0.007518199,-0.025272755,0.032933738,0.041511204,-0.0062036295,0.0068830983,0.026122117,-0.0147463735,-0.03240802,-0.027009567,-0.019891158,0.010022959,0.030753521,0.02138186,0.01616346,-0.016025808,-0.060529687,-9.900557e-05,-0.04802681,0.09390607,0.014249157,0.05871248,-0.049872458,-0.038967483,-0.004698221,0.06460755,0.03290573,-0.0010575892,-0.0068689827,0.002916769,0.00396159,-0.042907238,-0.002058828,0.07066347,-0.0031678937,0.022596013,-0.042343214,-0.005735254,0.054202054,-0.010314345,-0.07345558,0.012457339,-0.018547952,0.057492938,0.008354591,-0.017258575,-0.03735353,0.0038354234,-0.03472387,-0.058779836,0.048494287,-0.038269434,0.035099335,-0.01990477,0.02598399,0.010943963,0.011766456,0.07023775,0.079842955,-0.0003578894,-0.018607704,-0.048702866,0.019073939,-5.4610413e-05,0.0033010775,0.018238971,0.017304493,-0.08200377,-0.0059411163,-0.0060973363,-0.07249087,0.008753871,-0.013405308,0.026513578,0.05757775,-0.0018446986,-0.013339639,0.04280201,-0.042252224,-0.057071954,-0.041184377,0.046864368,0.0066761924,-0.010511898,-0.009112911,0.04000405,-0.01910722,-0.028320348,0.015312458,0.07027334,0.011002343,0.020930719,0.035392817,0.04033508,-0.013375121,0.050570812,0.022097386,-0.008948246,0.0515284,0.014482532,-0.07794718,0.042807434,-0.008241428,0.057748206,-0.017228127,0.05395527,0.04651061,0.016874297,0.030481387,-0.008990461,0.05155393,-0.04530034,-0.051401127,0.027623784,0.0102495,-0.042631246,-0.050861947,-0.015212129,-0.025118139,0.026892621,-0.012154922,0.0035763164,-0.0033671984,0.021071972,-0.048605815,0.0006790396,-0.021645345,0.03310721,-0.002483287,0.03739107,-0.046327297,0.028877027,-0.0032596197,0.026493102,0.017375521,-0.017122174,-0.03865377,-0.027910791,0.026646769,-0.031781193,-0.006939959,-0.04332341,0.04345025,-0.052093968,0.010187604,-0.08255852,0.010666132,0.011118096,-0.020713562,-0.016939724,-0.026222073,-0.010284366,0.025990058,0.009081948,0.016885705,-0.019785786,-0.001164493,0.003117753,0.019649085,0.06734978,0.025949905,-0.003921225,-0.037679438,-0.018044295,-0.043756515,-0.010605182,0.02659027,0.07161862,-0.088696,-0.01443208,-0.0005829477,0.016009228,0.04386887,-0.009580732,-0.029359072,0.002723945,-0.042115655,-0.021395573,-0.041105468,0.009537643,0.010130683,0.00421824,0.033505797,0.032664075,0.0510103,-0.012690736,0.00797988,-0.017362654,0.008904827,0.030183818,-0.057839815,0.023558695,-0.015716515,0.0865165,0.03974328,0.013905772,0.0051156664,0.028741708,0.05022331,-0.0010205889,0.017979413,0.027486932,-0.0003989927,0.033675592,-0.0043067955,-0.039302036,-0.062439904,0.028918812,-0.0054836874,0.008721151,-0.03144938,0.012115227,-0.019893892,0.0074772155,0.04897938,0.009990453,-0.028810024,7.9167105e-05,-0.05070123,-0.02297386,-0.05717985,0.031975955,-0.04048202,-0.033681665,0.014371544,0.011081366,-0.02355629,-0.04118202,0.022648435,-0.058826085,-0.06621975,0.016747713,0.044902995,0.018281065,-0.014089791,-0.026771102,0.00088139466,-0.0030331216,-0.014017795,0.01650472,-0.0012482989,0.049391568,0.020707304,0.04035183,0.058466256,0.01721339,-0.0039592744,0.022337344,-0.058132384,-0.028024161,-0.026889907,-0.017178044,0.0055283234,0.008497515,-0.0048525827,0.030854575,-0.01797141,0.011197108,0.008410842,-0.016077822,-0.034381382,0.07995672,-0.016028961,-0.026381426,0.018883705,0.006331015,0.016396997,-0.02685766,0.07523102,-0.01774873,-0.006759588,0.018228605,0.017574232,0.02789486,-0.03151615,0.005427202,0.07956389,-0.00046123934,-0.010101532,0.011434038,-0.018846959,0.048218742,-0.056372534,0.04979801,0.012246843,0.0063882046,0.099359736,-0.026861718,0.029268408,0.027014496,0.023366874,-0.065889426,-0.00583109,0.018931514,0.03132831,0.007571256,0.033741128,0.02302649,-0.015670596,0.025716651,0.019628638,0.0037760949,0.083438486,0.015785756,0.0030447615,-0.017118523,0.087810054,0.0024399392,-0.01563073,-0.029155215,0.021810802,0.027416365,0.021503408,0.0684253,0.034405738,0.0002794823,0.012893376,0.050457172,-0.056125578,-0.013946466,0.024247836,0.032008454,-0.026139786,0.065106444,-0.013385132,0.043840654,0.038817924,-0.05285501,-0.002943742,-0.004782831,0.042529956,-0.058698226,0.025531003,-0.022180034,-0.030628143,-0.010874483,0.014952428,0.000624604,0.021900117,0.011809343,0.028331548,-0.01112287,0.035522297,0.01961464,0.0227602,-0.024841793,-0.04726447,-0.022248017,0.0144432755,-0.00012579886,-0.038933598,-0.0123754125
1.NBT.A.1,-0.040122077,0.073686086,-0.020543555,-0.014439163,0.024050174,0.016824577,-0.009038954,0.025033286,0.01783486,0.043570664,0.026791297,-0.014711959,0.008854039,0.0065538753,-0.060036823,-0.030848624,-0.0053245453,0.041908443,0.018912403,0.023778,-0.07256171,0.026218046,-0.0034070069,-0.043385267,-0.009625314,-0.015573435,-0.009700689,-0.0058853184,0.028448293,-0.043209627,0.012322221,-0.025802411,0.016722305,0.01356261,0.016489403,-0.035945017,-0.03241237,-0.011996,-0.061259896,-0.01638251,0.07523959,-0.017262531,-0.0221657,0.0026008515,-0.0255984,0.0104448125,0.037809208,-0.031223563,-0.007895091,0.010534295,-0.0278075,0.07859323,0.0028884388,0.030734222,0.08051471,-0.07840451,-0.011607874,0.030400742,0.007682073,-0.021901626,-0.013268032,-0.028224578,0.0011034579,0.035436444,-0.037060995,0.0080639655,0.036048993,-0.036447916,-0.017588107,0.029754529,-0.00565004,0.019957373,0.019434223,0.011234389,-0.054312043,-0.109590076,-0.035130147,-0.0014578295,0.008318645,-0.019793056,-0.040382404,0.11305936,0.0015916827,0.030247962,0.007810806,-0.04078807,-0.011388296,-0.0009444695,-0.05054042,-0.05124374,-0.006206535,-0.028736971,0.04804026,0.00274087,-0.045197044,-0.00012769294,-0.037477277,0.042843904,0.027598329,0.0064004217,0.030656459,0.04217529,0.032547463,0.005594496,0.022601599,-0.07861472,0.032363262,-0.100170955,-0.0559843,-0.0042926576,0.025510557,0.009136334,0.01122843,-0.07093704,0.046523143,-0.00960852,-0.017241638,0.0093104495,0.026616715,0.022099178,-0.03855066,-0.022677997,-0.02186812,-0.03283366,-0.002421398,0.048670538,-0.070533924,-0.029602097,-0.01009669,-0.04285373,-0.017758371,-0.026697574,-0.009803984,-0.0107620135,-0.0005372145,-0.037361335,-0.017452545,0.009801542,0.093327776,-0.052473884,0.052244697,-0.0014876567,0.05042603,-0.05731382,-0.01996229,-0.027968794,0.01809852,-0.03993249,0.013396104,0.025424626,0.06161432,0.04437251,-0.026385302,-0.017621208,-0.019020613,-0.017368523,0.043313306,-0.0339834,0.044022404,0.003734605,-0.013374522,0.0064799436,-0.017089596,-0.017385893,0.013086008,0.02387431,-0.04866055,0.015295191,0.027105568,0.008620454,-0.020040907,0.0039374037,0.028315108,0.001182015,0.013228454,-0.004301213,-0.0031446202,-0.02547859,-0.028031088,-0.023858115,-0.027250411,-0.06172535,-0.023731172,0.0500333,0.05004729,-0.019096617,0.04870259,-0.009208912,-0.008397215,0.0017313628,0.02850302,-0.061941326,0.02277849,0.016740987,-0.0018611747,-0.003573623,-0.009664742,0.031174183,-0.01949615,-0.034287035,-0.03197021,-0.0055818823,0.013166087,-0.014677376,0.003123561,-0.08884196,0.03783905,-0.012792132,0.03899474,0.038382888,0.077382684,0.03354847,-0.022078644,0.0016468614,0.06321823,0.043901496,0.014963619,-0.0583639,0.024206592,-0.026177136,-0.005661356,0.052971985,-0.048446093,0.015792904,-0.019997358,-0.0010500398,-0.02068535,-0.020214936,-0.014862735,0.010502908,0.03670015,0.0028853242,0.03340802,0.023385642,-0.004757313,-0.099831484,-0.074546464,-0.02438026,0.029939126,0.010171125,-0.004300397,-0.031420954,0.032304306,0.019591557,0.0059715705,0.029750565,-0.0787216,0.061140805,-0.0008832421,0.008918607,-0.037829574,0.026052326,-0.012342954,0.021912161,0.018015778,0.03063145,-0.0945579,0.019915443,-0.008940719,-0.07544866,-0.021427346,-0.032704014,0.007645886,-0.009851046,0.017803648,0.01159162,-0.0021757984,-0.03085131,-0.055870134,-0.02575004,-0.031857874,-0.035723828,-0.014105974,-0.008545298,-0.04030782,0.011936493,-0.01903621,0.015018261,-0.03904794,0.0036646095,-0.013229218,-0.028741173,0.014428272,-0.0022235143,-0.0023994357,0.009216308,0.022387847,0.027435577,0.027050598,-0.014006709,0.018557483,0.0053864596,0.01611112,-0.03607132,0.02798517,0.01772844,-0.02435691,-0.006477797,0.04315345,0.067797974,0.024777388,-0.0086756805,0.004686982,-0.017042987,-0.04185788,0.057135127,0.040639244,-0.08914668,-0.004320454,0.07928618,-0.045113664,-0.0042097564,0.008702101,0.021339187,0.02879993,-0.009792384,0.011557972,0.013570058,-0.010666395,0.03971057,0.010603903,-0.032144394,0.024527155,0.016568461,-0.013739922,-0.0029884907,0.05274208,-0.023254495,-0.018953037,0.0650919,-0.011170757,-0.08135805,0.039353043,0.0021300418,0.031852767,-0.033625733,0.012278887,0.07359426,0.03950465,-0.012155945,-0.031907752,-0.016447265,-0.024115268,-0.0013332074,-0.01248733,0.054881655,0.0027023284,-0.022503112,-0.04855745,0.018976368,0.049750127,0.008733985,0.028815562,0.0055920803,-0.03553365,-0.087010674,-0.022083906,-0.0077926293,-0.036634628,0.017776836,0.047715224,-0.0035119278,-0.071412064,0.07183337,-0.04157829,-0.01463714,-0.0004772483,-0.021820676,-0.045994848,0.005801997,-0.011725923,0.028976995,0.010645704,-0.031046579,0.020359976,-0.017838646,0.041876305,-0.05169917,-0.01586689,0.016328352,0.0034422583,0.0017366284,0.022654777,-0.0021034025,0.006387999,-0.051969018,-0.014710198,-0.00052819157,-0.11324305,0.03483512,-0.029366683,-0.026596973,0.037239667,0.019818218,0.015257739,0.028529156,0.044593886,0.05976225,-0.0021550094,-0.011455739,0.015782962,0.0132330805,0.022686152,-0.009185187,-0.029879129,0.023273459,-0.04654753,0.06862395,-0.025279123,0.0008691833,-0.029471956,0.04848919,0.020711811,0.012400216,0.025456285,0.02564208,-0.027766487,0.0014680052,-0.0065029543,-0.026909148,-0.06883963,0.003751221,0.031254154,0.041299254,0.014913053,-0.034374803,0.022379905,0.0063399673,0.029398523,-0.0027280387,0.031819817,0.028777974,0.00688216,0.01292948,-0.09637506,0.023345856,-0.08855653,0.018433567,-0.007173069,0.011857775,0.008402571,-0.015527137,0.07256119,-0.00060569344,-0.028407352,0.07547282,0.025964806,0.008701761,-0.04217476,-0.0064822733,0.012031624,-0.012753495,-0.013022016,0.031191047,0.00599356,0.010788396,-0.011826872,-0.060426984,0.058350753,0.027267609,0.08463844,0.11346345,-0.05591135,0.024897322,-0.048321016,-0.17246826,0.044810604,-0.043734748,0.051385146,-0.046229493,-0.0004089788,-0.004679832,-0.008360376,-0.0240039,0.046991587,-0.015056795,0.0034992734,-0.04858102,0.043819446,-0.010749574,0.0008262119,-0.07672297,-0.0413555,-0.003339846,0.0017937793,-0.005206732,-0.016485654,0.011527961,-0.033242326,0.025423815,-0.0030099682,0.025773957,-0.00802549,0.06204558,0.0031611905,0.064861566,-0.046710588,0.02078583,0.0644149,0.07281641,0.030892726,-0.019566901,0.021099975,-0.051268052,-0.03474064,0.042713925,0.06033465,0.0031820915,0.03439492,0.030013032,-0.019549767,0.007907453,0.04921864,0.038823005,0.031028036,-0.0066188783,-0.07844539,0.022203123,-0.016767845,0.0042193336,0.0038081321,-0.0011745661,-0.013783613,0.008035655,-0.007380553,-0.026515327,0.019655772,-0.004294947,-0.04088982,-0.00788096,-0.013052819,0.012001677,0.06654351,-0.02900742,-0.008790411,0.07403284,-0.0060602096,-0.041633267,0.03228017,0.008043792,0.018312588,0.0064632185,0.057759106,0.024447083,0.0035704372,0.019280588,0.0049125873,-0.032823768,-0.055355992,-0.00021360748,0.017961789,0.027823012,-0.058374885,-0.0010844842,-0.03608114,-0.003049521,0.006707579,-0.046588983,0.007122725,0.052606676,-0.01151426,-0.05148361,0.0140818,-0.0154931545,0.05965945,-0.0006657013,-0.023312114,-0.022508852,0.029892102,-0.027100593,-0.02996743,-0.00037460815,0.043686245,-0.016861375,-0.02867581,-0.01456147,-0.008879063,-0.023081303,0.06398329,-0.01148604,-0.02892413,0.0041935374,-0.0027925186,-0.0011229386,0.028221259,-0.0076365084,-0.001544953,0.06103489,0.02190259,0.0002836549,0.0014158667,0.019476516,-0.01639366,-0.0039051035,-0.019192714,-0.034720827,0.08276031,-0.01559546,0.0030724658,0.024861531,0.027873268,-0.022626357,-0.0017109424,0.026857717,-0.00024113974,0.04513125,-0.028841188,0.009880508,0.009323842,-0.038801063,-0.0644608,0.0464677,0.007753644,-0.016449317,-0.09305489,-0.01143908,0.096537195,0.06184701,-0.01874812,0.0003927199,0.006629315,-0.01706137,0.030599557,0.060725056,-0.061285157,-0.022294583,0.041930046,-0.007852795,0.038626876,0.016195094,0.13867421,-0.0034009248,-0.045633756,0.011826823,-0.011621411,0.051002324,0.044728868,0.008271282,-0.043196246,0.02084843,-0.025269391,-0.023614293,0.0112711,0.009089053,0.01258286,-0.006437156,-0.054327186,0.036276177,0.035700638,0.028296558,-0.027888987,0.0364666,0.02033967,-0.011500111,-0.017998219,-0.047264695,0.016798597,0.03764181,0.0088951,-0.038532134,0.024298927,0.0338566,-0.01208846,0.020168195,0.018691326,-0.02825212,0.01274474,0.025221229,0.0023611926,0.07912224,0.02834997,-0.010817365,0.001316701,-0.015303644,-0.029274918,-0.12781532,-0.005754427,0.07838421,0.04523925,-0.002419347,-0.046994366,-0.011398751,0.048243057,-0.039248314,-0.014853735,0.03837183,0.0008114867,0.05294072,0.023943076,0.010101207,-0.0131060975,0.023927018,0.081950404,-0.027056197,-0.030303521,-0.003422004,-0.016921656,0.012384679,-0.048514426,-0.006794219,0.0038829257,-0.015268001,0.059037235,-0.024408326,-0.01955163,0.039458655,0.03374961,0.023424422,0.0029376077,-0.028594466,0.021979453,0.010668862,0.016133726,0.028586462,-0.03182917,0.016604794,-0.024818147,0.035332434,0.011031705,0.022234546,-0.07453365,0.009992124,0.041243378,0.039368756,0.029040717,0.029040948,0.085022114,0.02894038,0.016221909,0.003852417,0.005585602,-0.0065445146,-0.011635408,0.024303673,0.0055277604,-0.006455264,0.0676991,0.031145414,-0.027581811,0.02675669,0.016279086,0.078503616,-0.001762298,0.040509485,-0.015556593,-0.0094055245,-0.004530051,-0.022014214,-0.10360458,-0.06391441,0.017001487,-0.03818907,-0.02112724,0.0051809642,0.012204218,0.022343824,0.023243615,-0.0006333085,-0.028221795,-0.04170641,0.024854522,-0.002437255,0.0005208881,-0.03856717,0.021039683,0.05311974,-0.054556612,-0.04930244
1.NBT.B.2,-0.021521777,-0.06420936,-0.03781463,-0.016887648,0.036848743,0.0081980815,0.049981095,0.010687125,-0.0021972184,0.07138661,0.061719343,0.05016862,0.017443992,0.022397632,-0.025981573,-0.034782074,0.01928741,0.0033083342,0.051079128,0.028695295,-0.02581572,-0.0020101303,-0.010333512,-0.029981913,-0.0003525369,-0.024414426,-0.0077232104,-0.004543114,0.036418673,-0.011351424,-0.024925612,-0.021287527,0.030744145,-0.01048959,-0.002328519,-0.010763469,-0.0037049148,0.009871295,-0.026910136,0.013894293,0.013944642,-0.08349323,0.037168592,-0.01813392,-0.038618166,-0.028040977,-0.0059186625,-0.010409134,0.0042926907,-0.034765575,-0.011364478,0.07414448,-0.022372598,0.040709943,0.056612812,-0.06828321,0.0016327344,0.010385793,0.067498244,-0.026327703,0.034050357,-0.025779707,0.042540368,0.0044159,-0.08607764,0.0057316204,0.115862146,-0.0150634255,-0.023930201,-0.017620573,0.027277023,0.024557907,-0.037363928,-0.03840112,-0.008671005,-0.061948415,-0.027970303,-0.0106687425,-0.0043602767,-0.04254914,-0.030208165,0.06778392,0.00326428,0.04432953,-0.033415854,0.031357158,-0.0057475646,0.021166133,-0.051268533,-0.060521066,-0.12473649,0.0129354,0.07530429,0.015985278,-0.026082521,0.010374808,-0.05788404,-0.05104033,0.027629927,0.03314962,0.058860473,0.037726227,-0.008364864,0.016269121,0.047739506,-0.0026047793,0.00888762,-0.012358436,-0.0664893,0.007297937,0.074562564,-0.04036471,-0.028337197,0.007253239,0.045509443,-0.011229672,-0.0021940714,0.041342795,0.017073875,0.027318025,-0.02204492,-0.022445925,0.0076318462,-0.019863227,-0.018972782,0.07577312,-0.11732359,0.029680496,0.0014563284,-0.015797354,-0.00027952497,-0.049536876,0.025496187,-0.023380931,0.052270755,-0.09881881,0.017211497,0.03477331,-0.019913564,-0.021173023,0.027292585,0.020356817,0.017493319,-0.03305303,-0.015842322,-0.0031386665,0.028967487,0.018437248,-0.008681344,0.02591647,-0.009739758,0.04600226,-0.08258965,-0.02332727,0.003265378,0.013843367,0.0063749594,-0.015353232,0.045959435,-0.004572315,-0.0023694567,-0.025736362,0.035227496,-0.009261404,-0.0046802443,-0.023875002,-0.02277338,0.007669421,-0.022326611,-0.032717284,0.031243246,0.023836177,0.020611651,0.0051484187,-0.006575297,0.082971476,-0.014955045,-0.0057043047,0.006157694,-0.010777651,-0.017566128,-0.02689479,0.038231324,0.032642458,0.038693212,0.0016772328,0.060817447,-0.045373127,-0.010116266,0.010978169,-0.0018113862,-0.022320729,0.024546128,0.010204349,-0.010627527,-0.039824933,0.0027124693,-0.04959074,0.02675066,-0.030551651,-0.0066007553,-0.01471015,0.02596185,-0.017858103,-0.021662736,-0.031727135,0.03498213,0.025511004,-0.013029503,0.00077215506,0.052192066,-0.0002144418,0.004678823,0.019116202,0.018244345,0.053579044,0.011452294,-0.018089674,0.013530135,-0.01895352,-0.027257806,0.026623338,0.025977032,0.05083113,-0.04394919,-0.027491812,-0.045782335,-0.014427669,-0.033539586,0.0046610353,0.016985808,0.008574664,0.034393422,-0.015007033,-0.035909917,-0.077608615,-0.091522016,0.0061398824,0.037010107,0.03541927,0.00455988,0.018622326,-0.004896303,0.0200716,0.03155409,0.0074452,-0.05106523,0.03495388,-0.018607987,-0.01247185,-0.025495568,0.065273225,-0.029984025,-0.021112375,0.00870715,-0.020782093,-0.03714422,-0.013613103,0.03997894,0.003325991,-0.07917204,-0.0690396,-0.0051156795,-0.037963793,0.029911075,0.011601886,0.033502154,-0.04400473,-0.018735204,-0.029964803,0.01942119,-0.008592827,-0.05653486,0.0021594684,-0.034352943,0.006039758,-0.045748968,-0.0066754804,-0.028008066,0.00905182,0.029938366,0.012853814,0.02958365,0.0020796983,-0.029404778,0.023925858,-0.027907982,-0.024007546,-0.016372604,-0.04856936,0.018413208,-0.041609183,0.031244792,-0.023382835,0.020077962,-0.024420492,0.018116701,-0.036467444,0.016391262,0.069825,-0.019627012,-0.030391224,-0.034655284,-0.021430267,-0.027544536,-0.014493633,-0.010642134,-0.019377802,-0.030297777,0.06149438,-0.036389884,-0.030500365,-0.033840176,-0.020849492,0.024491033,0.034542028,-0.012820829,-0.025285563,0.041608628,0.052211165,-0.009196526,-0.01866443,0.007648743,0.010489172,-0.0193472,-0.052934125,0.018488396,0.04491642,0.026789228,0.015324686,-0.0062816488,-0.025568813,0.011171098,-0.009305485,0.026148964,0.019453682,0.019617343,0.07310289,0.016586678,-0.0074901497,-0.030394586,-0.015127583,0.009277053,0.014564717,-0.029505657,0.04181106,0.0028710084,0.012846742,-0.054864652,-0.033543188,0.05436722,0.014150817,0.013016733,-0.04811863,0.013521957,-0.030786527,-0.022446513,0.019525437,0.029146975,-0.042760916,0.037287302,0.008863346,-0.027631097,0.09534452,-0.042037666,-0.0013622885,0.032220308,-0.059235603,-0.019346189,0.06836018,0.005531973,-0.004332939,0.026722632,-0.00040524272,-0.0016086375,0.028845182,0.04509415,-0.027229773,-0.030302912,0.018800471,0.0019680548,-0.061105598,0.007252686,-0.0028919333,0.0032640672,-0.047819383,0.0030579718,-0.016676413,-0.06192275,-0.0063333237,-0.029487226,-0.059779085,0.010510758,0.013457364,-0.0023541627,0.06681232,0.05215126,0.048532758,-0.016724162,0.011074322,0.034972157,0.040612377,0.05967729,0.010884203,0.010977042,-0.041904908,-0.10952844,0.002903455,-0.0601048,-0.08049956,-0.066373296,0.07411857,0.0097725615,0.0135038085,0.014574323,0.07705322,-0.022906037,-0.005577971,0.012861115,-0.07217487,-0.0283352,-0.00435089,0.0031577875,0.041993294,-0.03392037,-0.049825024,0.03638688,-0.035608966,0.01638026,-0.019559326,0.034420904,0.045557775,0.017316936,0.057990223,-0.048328828,0.046075154,-0.058694642,0.03783764,-0.044565093,-0.0009109579,0.00768263,0.019295078,0.09373038,0.020423736,-0.023879325,0.049351033,0.026652144,-0.0033230877,-0.033686094,-0.021289779,0.0342094,0.0018745074,0.03226158,0.01652443,0.071285516,0.010242348,-0.020501139,-0.114683375,0.03271741,0.025674092,0.061389457,0.13608158,-0.069625705,-0.001182196,-0.015528867,-0.028313763,0.07627584,-0.054323535,0.016940648,-0.009420041,-0.0022212102,0.0049818815,-0.014424847,0.016274344,0.037739392,-0.001309229,-0.018000683,-0.1645352,0.08203379,-0.030133879,0.043067716,0.004110468,0.0071461746,0.07435474,0.0081252735,-0.008444556,-0.013787169,-0.03302335,-0.009595406,-0.015985752,-0.005987567,0.017335478,-0.027881548,0.050905716,0.059741046,0.046897966,-0.041317258,0.005453344,0.04860031,0.080560274,0.0053637074,-0.036619112,-0.012039964,-0.039325386,-0.020020848,0.010444284,0.036217242,0.035517793,0.007997609,-0.022474604,0.042537782,-0.0032502834,0.043672632,-0.04258828,0.027943805,-0.048639625,-0.045156952,0.09018874,-0.0037542935,0.04464498,0.014810051,-0.017099135,0.03644795,-0.00064011704,-0.015074421,0.00030780814,0.014426653,-0.026935538,-0.009389159,-0.023517817,-0.09348429,0.03735152,-0.034911036,-0.0052123074,0.02801416,-0.011232432,-0.005751547,0.109637536,-0.024173355,0.022692507,-0.015032702,0.024885679,0.09436837,-0.0127645545,0.025318682,-0.010069807,0.028609945,-0.041175604,-0.016776633,0.029458692,0.028729616,-0.010712637,-0.037384655,0.003607579,0.00043971252,0.008853725,-0.02286243,-0.011593351,-0.013486946,0.018962812,-0.003173356,-0.06756985,0.0050157327,0.030629562,-0.0032338283,0.019096423,-0.028044729,0.017465565,0.004886256,-0.0074670976,-0.023552015,-0.02571341,0.008420694,0.0012460381,-0.021257931,0.0056758975,0.031428955,-0.00080026133,0.054783035,0.044006344,-0.008656967,0.0036943273,-0.02039507,0.022126323,-0.013292322,-0.010988566,0.005238921,0.019651055,0.026103826,-0.019263139,0.010993428,0.027978374,0.0029861066,-0.057049822,-0.048682004,-0.051066253,0.038332485,-0.028345633,0.031692952,0.025045732,0.026702676,0.0062970263,-0.031837992,-0.0049259947,0.024950808,-0.004267436,0.00016052308,-0.042387288,0.023665788,0.019453164,-0.054438263,0.0120263,-0.032129955,0.015915051,-0.028920444,0.02396894,0.102104485,0.010275469,-0.018783478,-0.06791121,-0.010483344,-0.04023238,-0.071710736,0.005357678,-0.026421385,0.0024380346,0.043719314,-0.0059127146,0.024570292,0.04574331,0.11440698,-0.033375636,-0.023955565,0.027061708,0.08873208,0.024706295,-0.010418867,0.0022564873,-0.0021165942,-0.019516869,-0.012557634,-0.04171383,-0.023456402,0.0092055565,-0.002134267,-0.012433329,-0.026732886,0.03981398,0.030402634,0.020446783,-0.011325927,-0.013583788,0.043755796,-0.010157042,0.026764123,-0.024811853,0.013370771,0.01268894,0.00371107,-0.01886678,0.041530956,0.010721498,0.048445012,-0.0015727389,-0.037042115,-0.018112965,0.023698095,-0.008115755,-0.048828162,-0.03595686,0.000772977,-0.059797026,0.0069174417,-0.039477654,-0.0127436435,-0.07041675,-0.04608294,0.028935501,0.029408678,0.0066608232,-0.0065419194,-0.036123242,0.010699074,-0.03523493,0.041745435,0.0675844,-0.017460564,0.087259,-0.00792417,-0.016418269,0.04692742,0.011021688,-0.011654558,0.0058292183,0.040628422,-0.03510881,0.004441913,-0.014446476,-0.008319363,0.007935008,-0.0051964195,-0.0075843623,0.057496086,0.020840252,-0.025008291,0.0006141646,0.0073553207,0.0053355764,0.033063337,2.0070225e-05,-0.018691443,0.031202184,0.011478402,0.011056185,-0.010331535,0.0013637239,-0.029598495,0.07294631,0.0034413782,-0.046277393,-0.0018986058,0.021195775,0.055185024,0.034877732,0.021440513,0.033189695,0.07028827,0.011014249,0.08610787,0.0182804,-0.010097605,0.0120208915,0.014430683,0.04770716,-0.07615971,-0.010601913,0.039113544,-0.009022653,-0.011160965,0.0084274765,-0.0059830057,0.042201214,-0.012808692,-0.0020628744,0.006689846,-0.004323532,-0.038562305,0.00979944,-0.015016291,-0.02930817,-0.029574655,-0.004062579,-0.060915757,0.05228882,-0.015165919,0.016632387,0.04043498,-0.009798359,-0.046710785,-0.038339976,0.024605036,-0.032876994,-0.031022053,-0.014580421,-0.016286679,0.082822286,-0.0066998764,-0.019798717
1.NBT.B.3,-0.030383287,-0.056866165,-0.04209373,0.0207488,-0.040256627,0.025731442,0.035512697,0.048355773,0.050001353,0.037949603,0.01139179,-0.0102955615,0.04939111,-0.046515044,-0.058302037,0.039028063,0.039911516,0.0644749,-0.038443334,0.057929005,-0.015609599,-0.009917893,-0.0304127,-0.004869714,-0.0036783565,0.024615211,0.010790399,0.002077191,0.029392289,0.009453437,-0.020945836,-0.00051995384,0.022458231,-0.039271433,0.010361343,0.0063461447,-0.0108934175,-0.013547323,0.004201218,-0.08061298,0.008996753,0.01443353,-0.007869588,-0.022057483,-0.029438406,-0.075475164,-0.014842415,-0.018733297,0.04393301,-0.0141416965,-0.013301511,0.08341692,-0.05632727,0.018998114,0.06205825,-0.05655352,0.011004866,0.039380763,0.013364416,-0.024557792,0.058186278,-0.05028351,0.029398067,-0.03432467,-0.075886056,0.005448075,0.102666624,0.01263425,-0.004428439,-0.015227764,0.06409841,0.0013244585,0.033652235,0.01561661,-0.008354515,-0.06450565,0.014334668,-0.049530614,0.009337919,-0.017067783,0.0030563157,0.08514671,-0.021444704,0.0043531824,-0.067540005,0.03277939,0.027619436,0.042620048,-0.047710378,-0.014359657,-0.035928894,-0.03825824,0.007046325,0.01771399,-0.06150373,-0.0053881914,-0.05190449,-0.07630963,0.03302842,0.053804457,0.035819124,0.049514182,-0.009896104,0.009447086,0.064638995,-0.0382266,0.022309413,0.019844897,-0.056207858,0.049629863,-0.018479556,-0.024662731,0.005080545,-0.026708858,0.039430846,-0.00156938,0.0016532436,0.0013246314,-0.035213485,0.0048736944,-0.12379282,-0.06504128,0.021847589,0.028267328,-0.04728148,0.036272563,-0.057405457,0.030207325,-0.012572821,-0.023548704,0.030559331,0.0060158237,-0.01725387,-0.03756452,-0.013821958,0.08415776,-0.034650743,0.03419963,-0.005065613,-0.035479795,0.030798601,-0.045852203,0.03237048,-0.0346856,0.024616048,-0.036143787,0.025035575,-0.059412587,0.011900345,0.023842297,0.07898786,0.07304809,0.002504728,0.00036318746,-0.029706739,-0.0010025467,0.015181419,0.03729962,-0.008722437,-0.048338875,-0.04625899,-0.024315085,-0.034499094,0.00026823336,-0.00024374707,0.010827292,-0.0793984,-0.023378322,0.083734795,-0.04439161,-0.041705932,0.0062863645,-0.026950385,-0.0010806577,-0.0063232067,0.06906296,0.105763406,-0.0010657882,0.012236653,-0.022145458,0.029969634,0.008850654,0.032662354,0.009674517,-0.018904326,0.0008752631,-0.039929207,-0.062193397,-0.0010168563,-0.022897871,0.00015996305,-0.016732369,0.030578064,0.016789392,0.014124422,-0.023664009,0.00948349,-0.058549397,0.0010273999,-0.037744146,-0.012894418,-0.037756287,0.044549655,-0.0084321415,-0.00038571304,-0.03215199,0.012730189,0.0057183504,-0.07382274,0.005851331,0.08642692,0.017046958,-0.029972514,0.009568796,0.03137886,0.040290732,-0.016252104,0.04054975,-0.0121885305,0.018908931,-0.018890329,-0.03353516,0.058825757,0.01547885,-0.0034348383,0.0014303072,-0.030231027,-0.006327751,-0.049723797,0.024290973,0.0099924095,0.03730696,-0.0051422548,-0.023080649,-0.036266092,0.011522165,-0.06638944,0.006637543,0.017312903,-0.02218954,-0.011599135,0.019480068,0.02146373,0.023024367,-0.007342276,-0.016244348,0.01955659,0.041474544,-0.010103273,0.006749582,-0.031776506,0.006195578,-0.011732761,0.0018031627,0.028525462,0.014121299,0.033824943,0.0021460839,-0.008385406,-0.0023655668,-0.07797988,-0.047122933,-0.013483666,-0.08507448,0.035557956,0.02061956,0.0027901772,-0.017369265,-0.008764789,0.012249825,0.015106793,-0.0145610375,-0.015427816,0.018574685,0.014171333,-0.033997525,-0.0249996,-0.01811978,-0.001257981,-0.016498184,-0.01999547,0.046487484,-0.026099268,-0.013067184,-0.07858713,0.04209677,-0.016059503,-0.06049392,-0.0027483518,-0.011204612,-0.010632638,-0.01998095,0.0044642095,0.007035303,0.027675776,-0.03254876,0.03920634,-0.049510885,0.007699542,0.06213892,0.0049254387,-0.026185906,-0.04174989,0.009508178,6.295256e-05,0.01119441,0.027036928,-0.015795248,-0.024841584,0.04039436,-0.04042584,0.00031311705,-0.03699842,0.024898076,-0.015226865,-0.017462222,-0.015917923,0.02851761,0.030095218,0.06315568,-0.0063198856,-0.025248336,0.0118924435,0.018827392,-0.0074494076,-0.031219611,0.009439785,0.015338617,-0.0019214286,0.011521348,-0.020428097,-0.032247838,0.0018218737,0.0148460865,-0.0118491035,0.054357912,-0.022704039,0.075555,0.03109507,0.038614966,-0.030388772,-0.028226681,0.00089742546,0.016760008,0.024160853,0.01610623,-0.013311244,0.04045348,-0.01307328,-0.0052760122,0.016646774,0.020529894,0.05197046,0.008301195,0.0048579113,-0.04297788,-0.0041807494,-0.010119664,0.025157928,0.00089182367,0.045650844,0.025357557,0.011263623,0.047565877,-0.045959305,0.019046914,-0.0057916213,-0.032673985,0.054171473,0.021779802,-0.02678461,-0.0054733227,0.03638259,-0.013093929,0.014572581,0.019738447,-0.0010552829,-0.02649341,-0.087489255,0.018635895,0.020668399,-0.15186241,0.01973422,-0.010834598,-0.0008309914,-0.041197088,-0.025958793,-0.053042516,-0.064845115,-0.018608177,-0.01771044,-0.049244404,-0.009896737,0.02959102,0.036972944,0.038830362,-0.006342624,0.043345544,-0.011887876,0.007798828,-0.021962848,0.10756579,0.030036861,0.021759218,0.01644807,-0.030783433,-0.04846301,0.0038776104,-0.019839704,-0.061688494,-0.02363309,0.0057056053,0.030167837,-0.004507105,0.0029065222,0.07091454,-0.024450045,-0.024777664,0.006632892,0.004372837,-0.013483355,-0.014980919,-0.036776364,0.031156618,-0.01587431,-0.016536871,0.04106359,-0.0020326595,0.025300283,0.018220661,0.04696967,-0.020129455,-0.018442465,0.027120652,-0.030062947,-0.018049343,-0.030146757,0.05919017,-0.08189828,-0.0020882047,0.012074528,-0.016563475,0.051678814,0.0013101766,0.013985568,0.020854387,-0.0054230574,-0.019086564,-0.031058373,0.012584832,0.07287238,0.02581814,0.020441681,0.02709961,0.066510685,-0.0011470865,-0.025200954,-0.084843755,-0.0045695817,0.0011478366,0.01845823,0.09496696,-0.06560054,-0.021221709,-0.0015667598,-0.094628,0.016102694,0.009180293,-0.019889332,0.0016509572,-0.002866794,-0.0011743777,0.0065784347,0.048094872,0.054711413,-0.010806657,0.010002734,-0.050221007,0.038886655,-0.012310898,0.018498562,-0.0045906873,0.035324797,-0.018778196,0.0047529107,0.00015176972,-0.02875536,-0.017204389,0.02476496,-0.029915417,-0.035625987,0.03668203,-0.008569102,5.192846e-05,-0.011037927,0.032266088,0.019911831,0.029852211,0.051627133,0.0117638605,0.025752641,-0.0057308446,0.00031942083,-0.036969714,0.038559645,0.04441024,0.018768482,0.010410712,0.027582366,-0.025993615,0.0117678065,0.017367711,-0.014743356,-0.018778857,0.023673503,-0.10123176,-0.044746198,0.023638692,-0.012291001,0.027468283,-0.008273722,0.009087263,0.010517673,0.008316199,0.028429458,-0.021317333,0.05054624,-0.010153788,0.032906044,0.017353456,-0.09702216,0.023595914,-0.021206772,0.0026959183,-0.015437724,0.02781,0.045652267,0.060792305,-0.0005316551,-0.016548013,-0.006174864,0.013181803,0.093733676,0.016580809,0.036687396,0.038939964,0.0016084582,-0.021252742,0.028527224,0.07023473,0.011523495,0.038888007,-0.04345304,-0.008919522,-0.014521853,-0.012972688,-0.016894542,-0.029608322,0.025793,0.00059901545,0.009082381,-0.04812698,-0.022748135,0.07469945,-0.04394895,-0.0005760446,-0.040042277,-0.004154054,0.026355127,-0.02287157,-0.009110656,-0.06217719,-0.004492283,0.05850113,-0.027384527,-0.018952997,0.006050765,-0.044765264,0.022774138,-0.0031367522,-0.0073659066,-0.0043697646,0.026335796,-0.012573449,-0.03504538,0.011211767,0.03946519,0.0009899826,0.02041196,-0.036794458,0.014022512,0.012446548,-0.054164693,-0.06916845,-0.017419001,-0.019021941,0.04008761,0.047529195,0.032664668,0.0071249427,0.050384607,-0.029882133,-0.01713574,0.016498279,0.035025697,-0.01816575,-0.032777112,0.0065158806,0.018593568,0.059085973,0.010807141,0.0036702533,-0.011821392,-0.026238991,0.012927775,0.024388557,0.13329856,0.04437271,-0.015813868,-0.009209363,-0.0033420753,-0.07423972,-0.08553762,-0.058113314,0.027041886,-0.017916167,0.0033771342,-0.0192838,0.019363582,0.10491347,0.02850095,-0.04797378,-0.041470725,0.050730355,0.113645494,-0.0023248785,-0.011724677,0.03563271,-0.016354607,-0.02697726,-0.044600837,-0.030903617,-0.04206988,-0.0660023,0.011381721,-0.026095184,-0.011816723,0.061565462,0.031895064,0.02876102,-0.016689723,-0.036436938,-0.013584236,-0.02109335,-0.0013903007,-0.0336165,0.058622297,0.013551238,0.034596793,0.034371268,0.04671415,0.012934716,-0.009346072,-0.014967731,-0.09522676,-0.030583164,0.027936334,-0.040667165,-0.059293635,-0.052579433,0.029121945,0.0006414241,-0.0028969734,0.025963373,-0.022477621,-0.014226486,-0.056405168,0.0510421,0.0045080436,0.055258594,0.0043307147,-0.043173913,-0.009015111,-0.02032179,0.03706676,0.06094587,-0.007684801,0.055358145,0.022052549,0.023883285,-0.008368713,-0.015143591,0.034226824,-0.02820172,-0.007695294,-0.048401605,-0.036435504,0.0034927279,-0.007827798,0.007327411,-0.0040930132,-0.0031602678,0.09727228,0.055904653,0.009907568,0.08604345,0.0003899277,-0.015519043,0.011369822,-0.00077834446,-0.0153789725,-0.0062497417,0.007751663,0.01128614,0.015946325,-0.0058026994,-0.04679238,0.020140754,0.0011469944,-0.011440663,-0.061607186,0.016828794,0.07680018,0.026440928,0.0155130755,0.051007066,0.07207808,0.01416956,0.02797121,0.007197308,0.0012309544,0.016346758,0.038651887,0.041085415,-0.08715071,-0.0028210443,0.0023158826,0.01715755,-0.04898694,0.04784102,-0.0024871377,-0.018680623,0.013657869,0.0017710344,0.01809268,-0.011970109,0.00039712442,-0.00490035,0.024355348,-0.034785382,-0.029852094,-0.0141166635,-0.017518505,-0.0072947214,0.003963627,-0.0030800928,0.042558584,-0.011108334,0.018991334,0.030023083,0.017190406,-0.01853332,-0.04646708,-0.13322534,0.041006666,0.08878911,-0.0067496225,-0.020417374
